{"learner":{"attributes":{"scikit_learn":"{\"_estimator_type\": \"classifier\"}"},"feature_names":["GP","FGA","ORB","DRB","STL","TOV","FG%","2P%","3P%","FT%","TS%","eFG%","POS_enc","Class_enc","PPG","APG","RPG","BPG","SPG","MPG","3PAr","FTr"],"feature_types":["int","int","int","int","int","int","float","float","float","float","float","float","int","int","float","float","float","float","float","float","float","float"],"gradient_booster":{"model":{"gbtree_model_param":{"num_parallel_tree":"1","num_trees":"250"},"iteration_indptr":[0,1,2,3,4,5,6,7,8,9,10,11,12,13,14,15,16,17,18,19,20,21,22,23,24,25,26,27,28,29,30,31,32,33,34,35,36,37,38,39,40,41,42,43,44,45,46,47,48,49,50,51,52,53,54,55,56,57,58,59,60,61,62,63,64,65,66,67,68,69,70,71,72,73,74,75,76,77,78,79,80,81,82,83,84,85,86,87,88,89,90,91,92,93,94,95,96,97,98,99,100,101,102,103,104,105,106,107,108,109,110,111,112,113,114,115,116,117,118,119,120,121,122,123,124,125,126,127,128,129,130,131,132,133,134,135,136,137,138,139,140,141,142,143,144,145,146,147,148,149,150,151,152,153,154,155,156,157,158,159,160,161,162,163,164,165,166,167,168,169,170,171,172,173,174,175,176,177,178,179,180,181,182,183,184,185,186,187,188,189,190,191,192,193,194,195,196,197,198,199,200,201,202,203,204,205,206,207,208,209,210,211,212,213,214,215,216,217,218,219,220,221,222,223,224,225,226,227,228,229,230,231,232,233,234,235,236,237,238,239,240,241,242,243,244,245,246,247,248,249,250],"tree_info":[0,0,0,0,0,0,0,0,0,0,0,0,0,0,0,0,0,0,0,0,0,0,0,0,0,0,0,0,0,0,0,0,0,0,0,0,0,0,0,0,0,0,0,0,0,0,0,0,0,0,0,0,0,0,0,0,0,0,0,0,0,0,0,0,0,0,0,0,0,0,0,0,0,0,0,0,0,0,0,0,0,0,0,0,0,0,0,0,0,0,0,0,0,0,0,0,0,0,0,0,0,0,0,0,0,0,0,0,0,0,0,0,0,0,0,0,0,0,0,0,0,0,0,0,0,0,0,0,0,0,0,0,0,0,0,0,0,0,0,0,0,0,0,0,0,0,0,0,0,0,0,0,0,0,0,0,0,0,0,0,0,0,0,0,0,0,0,0,0,0,0,0,0,0,0,0,0,0,0,0,0,0,0,0,0,0,0,0,0,0,0,0,0,0,0,0,0,0,0,0,0,0,0,0,0,0,0,0,0,0,0,0,0,0,0,0,0,0,0,0,0,0,0,0,0,0,0,0,0,0,0,0,0,0,0,0,0,0,0,0,0,0,0,0,0,0,0,0,0,0],"trees":[{"base_weights":[-1.12439126E-1,-1.3083931E0,3.7976825E-1,-1.8015652E0,-4.7984424E-1,-5.363661E-1,8.085327E-1,-2.1791454E-1,-1.1238736E0,4.761271E-1,-1.3512129E0,8.7919855E-1,-1.1507471E0,6.16055E-2,1.066723E0,-2.1341877E-1,3.24639E-2,7.873788E-1,-1.8450463E-1,-2.1316996E-1,-1.785774E-1,1.0667212E0,-1.7333412E-1,-1.4939147E0,8.872485E-1,8.9064175E-1,-6.334583E-1,-1.7967986E-1,1.1106708E0,-1.9135569E-1,6.616512E-1,-1.609334E-1,9.8119223E-1,1.2585416E-1,-1.2344693E0,-1.3152777E-1,1.1482866E0,-2.019521E0,-7.707403E-1,-1.678618E-1,1.4167972E0,-1.707497E-1,1.1033423E0,-2.0352285E-1,-2.5998548E-1,6.505432E-1,1.33999E0,1.0328884E0,-1.609334E-1,1.1778746E0,-2.3343633E-1,-1.9883606E-1,9.236863E-2,-1.2174028E-1,1.2194358E0,-5.9099114E-1,-2.1660526E-1,1.1602721E-1,-1.0375944E0,1.6426902E-1,4.549913E-1,1.256257E0,-1.5187861E-1,4.5827144E-1,-1.1642134E0,2.9851305E-1,1.335712E0,-1.609334E-1,1.3843343E0,-1.3954106E-1,1.3238056E0,1.2971628E0,-1.2174028E-1,-1.6461366E-1,1.3403732E-1,1.2410336E-2,1.3310864E0,-1.7967986E-1,1.3403732E-1,-2.0842445E-1,-3.5811162E-1,-1.2174028E-1,1.3403732E-1,1.5917579E0,5.3611535E-1,-7.649194E-1,9.583901E-1,-1.5522275E0,1.11900024E-1,-6.884663E-1,9.4581515E-1,-1.2174028E-1,1.4555329E0,1.1315116E0,1.548692E0,5.9476893E-2,1.4592029E0,1.2410336E-2,1.5075998E0,1.3403732E-1,-1.5187861E-1,1.5044514E0,6.3491446E-1,7.537E-1,-1.3953146E0,7.50086E-2,1.6665587E-1,-1.5187861E-1,9.5438325E-1,-1.8586577E-1,1.3403732E-1,1.4504473E0,2.3513743E-1,9.236863E-2,-2.0709E-1,-1.5522275E0,9.505117E-1,1.0691754E0,-1.3954106E-1,5.9476893E-2,1.5345585E0,3.430925E-1,1.444227E0,-1.2174028E-1,1.585001E0,7.50086E-2,1.5998448E-1,1.3403732E-1,-1.5187861E-1,9.4314806E-2,1.6278647E-1,9.505117E-2,1.6507371E-1,-1.5672863E-1,1.3451983E-1,-4.300974E-2,1.6333461E-1,-2.0289186E-1,7.50086E-2,1.3451983E-1,1.0861736E-2,7.50086E-2,1.6333461E-1,-1.609334E-1,1.1602721E-1,1.3403732E-1,-2.074518E-1,-1.2174028E-1,1.3451983E-1,-1.3152777E-1,1.1828824E-1,1.6336857E-1,5.9476893E-2,1.0714716E-1,-1.8829675E-1,1.0861736E-2,1.5486936E-1,1.6234545E-1,1.0222572E-1],"categories":[],"categories_nodes":[],"categories_segments":[],"categories_sizes":[],"default_left":[0,0,0,0,0,0,0,0,0,0,0,0,0,0,0,0,0,0,0,0,0,0,0,0,0,0,0,0,0,0,0,0,0,0,0,0,0,0,0,0,0,0,0,0,0,0,0,0,0,0,0,0,0,0,0,0,0,0,0,0,0,0,0,0,0,0,0,0,0,0,0,0,0,0,0,0,0,0,0,0,0,0,0,0,0,0,0,0,0,0,0,0,0,0,0,0,0,0,0,0,0,0,0,0,0,0,0,0,0,0,0,0,0,0,0,0,0,0,0,0,0,0,0,0,0,0,0,0,0,0,0,0,0,0,0,0,0,0,0,0,0,0,0,0,0,0,0,0,0,0,0,0,0,0,0,0,0,0,0],"id":0,"left_children":[1,3,5,7,9,11,13,-1,15,17,19,21,23,25,27,-1,29,31,-1,-1,33,35,-1,37,39,41,43,-1,45,-1,47,-1,49,-1,51,-1,53,55,57,-1,59,-1,61,-1,63,65,67,69,-1,71,73,-1,-1,-1,75,77,-1,-1,79,-1,81,83,-1,85,87,89,91,-1,93,-1,95,97,-1,-1,-1,99,101,-1,-1,-1,103,-1,-1,105,107,109,111,113,-1,115,117,-1,119,121,123,-1,125,127,129,-1,-1,131,133,135,137,-1,-1,-1,139,-1,-1,141,143,-1,-1,145,147,149,-1,-1,151,153,155,-1,157,-1,-1,-1,-1,-1,-1,-1,-1,-1,-1,-1,-1,-1,-1,-1,-1,-1,-1,-1,-1,-1,-1,-1,-1,-1,-1,-1,-1,-1,-1,-1,-1,-1,-1],"loss_changes":[5.512376E2,1.1069159E2,2.6109143E2,4.1250244E1,8.663469E1,1.8552248E2,8.718387E1,0E0,7.386872E1,3.755091E1,4.9284523E1,3.3584225E1,1.0509714E2,6.81436E1,4.4298126E1,0E0,3.8538906E1,2.2369898E1,0E0,0E0,3.611559E1,1.33732605E1,0E0,4.685614E1,3.228608E1,3.167051E1,3.3174164E1,0E0,3.412613E1,0E0,2.1682644E1,0E0,1.0315929E1,0E0,2.4020193E1,0E0,1.1511322E1,1.4030212E1,2.9661385E1,0E0,3.334568E0,0E0,2.212804E1,0E0,3.4293255E1,2.6679737E1,3.1055298E1,1.6696123E1,0E0,1.1962162E1,1.7085032E1,0E0,0E0,0E0,7.844467E0,2.1457773E1,0E0,0E0,3.413558E1,0E0,8.970815E0,1.0791504E1,0E0,1.889376E1,2.2373287E1,4.8854153E1,1.3340416E1,0E0,7.293396E0,0E0,1.035614E0,9.470619E0,0E0,0E0,0E0,1.4130691E1,5.4876785E0,0E0,0E0,0E0,3.6740047E1,0E0,0E0,7.879791E-1,1.5911243E1,2.3609978E1,7.3158703E0,2.8019188E1,0E0,4.4601105E1,1.4773682E1,0E0,1.5752792E0,2.156488E1,1.4907043E1,0E0,3.5333633E-1,1.4130691E1,5.1142883E-1,0E0,0E0,1.8351135E0,2.1462687E1,1.69326E1,2.3763178E1,0E0,0E0,0E0,4.677847E0,0E0,0E0,3.9021873E-1,1.8768435E1,0E0,0E0,3.3493294E1,1.116417E1,1.3553715E1,0E0,0E0,2.0902252E0,4.534536E1,8.727127E0,0E0,1.1096802E0,0E0,0E0,0E0,0E0,0E0,0E0,0E0,0E0,0E0,0E0,0E0,0E0,0E0,0E0,0E0,0E0,0E0,0E0,0E0,0E0,0E0,0E0,0E0,0E0,0E0,0E0,0E0,0E0,0E0,0E0,0E0,0E0,0E0,0E0],"parents":[2147483647,0,0,1,1,2,2,3,3,4,4,5,5,6,6,8,8,9,9,10,10,11,11,12,12,13,13,14,14,16,16,17,17,20,20,21,21,23,23,24,24,25,25,26,26,28,28,30,30,32,32,34,34,36,36,37,37,38,38,40,40,42,42,44,44,45,45,46,46,47,47,49,49,50,50,54,54,55,55,58,58,60,60,61,61,63,63,64,64,65,65,66,66,68,68,70,70,71,71,75,75,76,76,80,80,83,83,84,84,85,85,86,86,87,87,89,89,90,90,92,92,93,93,94,94,96,96,97,97,98,98,101,101,102,102,103,103,104,104,108,108,111,111,112,112,115,115,116,116,117,117,120,120,121,121,122,122,124,124],"right_children":[2,4,6,8,10,12,14,-1,16,18,20,22,24,26,28,-1,30,32,-1,-1,34,36,-1,38,40,42,44,-1,46,-1,48,-1,50,-1,52,-1,54,56,58,-1,60,-1,62,-1,64,66,68,70,-1,72,74,-1,-1,-1,76,78,-1,-1,80,-1,82,84,-1,86,88,90,92,-1,94,-1,96,98,-1,-1,-1,100,102,-1,-1,-1,104,-1,-1,106,108,110,112,114,-1,116,118,-1,120,122,124,-1,126,128,130,-1,-1,132,134,136,138,-1,-1,-1,140,-1,-1,142,144,-1,-1,146,148,150,-1,-1,152,154,156,-1,158,-1,-1,-1,-1,-1,-1,-1,-1,-1,-1,-1,-1,-1,-1,-1,-1,-1,-1,-1,-1,-1,-1,-1,-1,-1,-1,-1,-1,-1,-1,-1,-1,-1,-1],"split_conditions":[1.01E2,2.8125E-1,3.08E2,4.34E-1,3.1E1,1E0,4.42E-1,-2.1791454E-1,3.08E2,3E0,3.11E2,6.7E1,1.9375E0,2E0,1.6E1,-2.1341877E-1,5.6E1,4.1E-1,-1.8450463E-1,-2.1316996E-1,1E0,1.99E2,-1.7333412E-1,2.9032259E1,5.93E-1,1.2903225E-1,1.7142858E-1,-1.7967986E-1,9.032258E-1,-1.9135569E-1,2E1,-1.609334E-1,9.3E1,1.2585416E-1,1.6857142E0,-1.3152777E-1,1.764706E-1,2.8E1,2.921875E1,-1.678618E-1,6.61E-1,-1.707497E-1,4.9E1,-2.0352285E-1,3.030303E-1,4.29E2,3.967742E0,2.8055556E0,-1.609334E-1,4.5E1,2.73E2,-1.9883606E-1,9.236863E-2,-1.2174028E-1,4.38E-1,6.2E1,-2.1660526E-1,1.1602721E-1,3E0,1.6426902E-1,3.7E1,4.64E-1,-1.5187861E-1,4.413793E0,2E0,1.67E2,3.0470589E1,-1.609334E-1,3.5E1,-1.3954106E-1,3.2E1,4.3E-1,-1.2174028E-1,-1.6461366E-1,1.3403732E-1,3.85E-1,6.7647057E0,-1.7967986E-1,1.3403732E-1,-2.0842445E-1,2.6E1,-1.2174028E-1,1.3403732E-1,3.3E1,3.63E2,5.64E2,4.58E-1,2.8E1,1.11900024E-1,3.95E2,3.83E2,-1.2174028E-1,3.939394E-1,3.2764706E1,2.6904762E1,5.9476893E-2,1.3E1,4.15E-1,4.56E-1,1.3403732E-1,-1.5187861E-1,3.9E1,5.6E1,5.7575756E-1,9.2E1,7.50086E-2,1.6665587E-1,-1.5187861E-1,1.1666666E0,-1.8586577E-1,1.3403732E-1,3.3E1,5.04E-1,9.236863E-2,-2.0709E-1,2.5E-1,4.1E1,4.87E-1,-1.3954106E-1,5.9476893E-2,5.15E-1,3.0515152E1,3.49E2,-1.2174028E-1,2.19E2,7.50086E-2,1.5998448E-1,1.3403732E-1,-1.5187861E-1,9.4314806E-2,1.6278647E-1,9.505117E-2,1.6507371E-1,-1.5672863E-1,1.3451983E-1,-4.300974E-2,1.6333461E-1,-2.0289186E-1,7.50086E-2,1.3451983E-1,1.0861736E-2,7.50086E-2,1.6333461E-1,-1.609334E-1,1.1602721E-1,1.3403732E-1,-2.074518E-1,-1.2174028E-1,1.3451983E-1,-1.3152777E-1,1.1828824E-1,1.6336857E-1,5.9476893E-2,1.0714716E-1,-1.8829675E-1,1.0861736E-2,1.5486936E-1,1.6234545E-1,1.0222572E-1],"split_indices":[3,17,1,6,0,13,6,0,1,13,1,5,17,13,2,0,5,6,0,0,13,1,0,19,7,17,17,0,18,0,2,0,3,0,18,0,17,0,19,0,7,0,2,0,17,1,16,16,0,2,1,0,0,0,6,5,0,0,13,0,0,7,0,16,18,3,19,0,0,0,0,6,0,0,0,6,16,0,0,0,2,0,0,0,1,1,7,0,0,1,1,0,18,19,19,0,2,6,6,0,0,5,5,17,2,0,0,0,18,0,0,0,7,0,0,18,2,7,0,0,6,19,1,0,3,0,0,0,0,0,0,0,0,0,0,0,0,0,0,0,0,0,0,0,0,0,0,0,0,0,0,0,0,0,0,0,0,0,0],"split_type":[0,0,0,0,0,0,0,0,0,0,0,0,0,0,0,0,0,0,0,0,0,0,0,0,0,0,0,0,0,0,0,0,0,0,0,0,0,0,0,0,0,0,0,0,0,0,0,0,0,0,0,0,0,0,0,0,0,0,0,0,0,0,0,0,0,0,0,0,0,0,0,0,0,0,0,0,0,0,0,0,0,0,0,0,0,0,0,0,0,0,0,0,0,0,0,0,0,0,0,0,0,0,0,0,0,0,0,0,0,0,0,0,0,0,0,0,0,0,0,0,0,0,0,0,0,0,0,0,0,0,0,0,0,0,0,0,0,0,0,0,0,0,0,0,0,0,0,0,0,0,0,0,0,0,0,0,0,0,0],"sum_hessian":[9.3458795E2,2.7200888E2,6.6257904E2,1.697784E2,1.02230484E2,2.1115549E2,4.5142358E2,1.0760822E2,6.2170166E1,4.8964985E1,5.32655E1,6.3777615E1,1.4737788E2,1.16277916E2,3.3514566E2,3.2728767E1,2.9441397E1,4.3758137E1,5.2068496E0,3.1489042E1,2.1776457E1,6.0058437E1,3.7191782E0,1.26366615E2,2.101126E1,5.2900066E1,6.337785E1,4.463014E0,3.3068265E2,6.694521E0,2.2746876E1,2.7273974E0,4.103074E1,9.141932E0,1.2634525E1,1.4876714E0,5.8570766E1,7.214138E1,5.422524E1,3.2232878E0,1.7787971E1,3.4712331E0,4.9428833E1,1.2397261E1,5.098059E1,1.1126561E2,2.1941702E2,2.001948E1,2.7273974E0,3.533868E1,5.6920595E0,9.421918E0,3.2126071E0,1.2397261E0,5.733104E1,7.179731E0,6.496165E1,6.177269E0,4.804797E1,1.3831529E1,3.9564428E0,4.7197327E1,2.231507E0,2.868688E1,2.2293709E1,7.444994E1,3.681567E1,2.7273974E0,2.1668964E2,1.7356166E0,1.8283863E1,3.4098953E1,1.2397261E0,2.9753428E0,2.7167168E0,4.9482236E0,5.2382816E1,4.463014E0,2.7167168E0,1.81E1,2.9947968E1,1.2397261E0,2.7167168E0,3.1371555E1,1.5825771E1,8.171512E0,2.051537E1,1.9329046E1,2.964662E0,2.9462759E1,4.4987183E1,1.2397261E0,3.5575943E1,8.847601E1,1.2821362E2,3.7084975E0,1.4575365E1,4.9482236E0,2.915073E1,2.7167168E0,2.231507E0,4.1009377E1,1.1373438E1,1.4586045E1,1.5361923E1,3.4605525E0,2.7911003E1,2.231507E0,1.3594264E1,5.454795E0,2.7167168E0,1.16107025E1,8.904667E0,3.2126071E0,1.611644E1,1.9329046E1,1.0133712E1,4.3251564E1,1.7356166E0,3.7084975E0,3.1867447E1,2.572222E1,6.275379E1,1.2397261E0,1.2697389E2,3.4605525E0,1.1114812E1,2.7167168E0,2.231507E0,6.6731596E0,2.247757E1,1.0133712E1,3.0875666E1,2.4794521E0,8.893986E0,6.435895E0,8.15015E0,1.1901371E1,3.4605525E0,8.893986E0,4.7002783E0,3.4605525E0,8.15015E0,2.7273974E0,6.177269E0,2.7167168E0,1.661233E1,1.2397261E0,8.893986E0,1.4876714E0,4.1763893E1,2.8158949E1,3.7084975E0,1.9771534E1,5.9506855E0,4.7002783E0,5.8053513E1,1.1708813E2,9.885767E0],"tree_param":{"num_deleted":"0","num_feature":"22","num_nodes":"159","size_leaf_vector":"1"}},{"base_weights":[2.7904331E-3,-5.616778E-1,7.6389766E-1,5.828032E-1,-9.565162E-1,1.8795511E-1,1.1290388E0,-8.724332E-1,1.1203176E0,-1.3655586E0,-2.548731E-1,8.4463644E-1,-4.4348478E-1,-1.7603108E-1,1.1974739E0,-1.8791634E-1,2.270274E-1,-1.2563746E-1,1.172966E0,-1.8891915E0,-8.6243105E-1,-1.9219536E-1,1.0894978E-1,-8.805814E-1,1.0823547E0,-1.6092342E0,9.282439E-2,3.9259088E-1,1.2845905E0,7.211842E-1,-1.5894184E-1,1.2207613E0,-1.2389413E-1,1.4885503E-1,-1.975904E-1,-1.1739905E0,5.953437E-1,-1.8217613E-1,2.9919514E-1,8.4983215E-2,-1.7874567E-1,1.196918E0,-1.4334922E-1,4.12015E-2,-1.9858104E-1,-1.8823218E-1,7.107276E-1,9.563656E-1,-1.7215148E-1,1.5519792E0,1.0476388E0,-1.278427E-1,1.0126625E0,8.7586784E-1,1.5274497E0,-1.9380994E-1,-7.7490777E-1,-1.5320021E-1,9.644415E-1,-1.1676377E0,5.0238836E-1,-1.20383166E-1,1.2698162E0,-1.6548884E-1,1.0174221E0,1.1901473E0,-1.23242676E-1,1.024153E0,1.595192E-1,4.599157E-1,1.3770025E0,2.5648713E-1,1.3509835E0,-6.2417257E-1,1.1617318E0,1.6537971E0,9.268277E-1,-1.4350976E0,-1.0168123E-2,-1.3283433E-1,1.2699149E0,-1.8304643E-1,1.0646744E-1,2.2427154E-1,1.3708198E0,3.2894737E-1,1.4001572E0,-1.265541E-1,1.1385537E0,1.6981758E-1,1.4809448E-1,1.4487693E-1,-1.19440354E-1,-1.7181627E-1,7.753331E-1,1.745433E-1,1.4479346E0,-1.3256527E-1,1.457055E-1,1.5786962E-1,7.182092E-2,1.2582633E-1,-1.6740741E-1,1.2609961E0,-1.1826128E-1,8.468547E-2,1.6977052E-1,1.4978085E-1,8.7343045E-2,3.3944547E-1,-1.9108169E-1,7.773254E-1,-8.212225E-1,-1.16485275E-1,1.5011383E0,-1.7340906E-1,4.2380524E-1,4.7733822E-1,1.5322733E-1,1.20556526E-1,-1.4863254E-1,7.1742195E-1,1.5477252E-1,1.2473356E0,-1.18030645E-1,-1.3219003E-1,1.2403231E-1,1.3158362E0,-4.0198505E-1,-1.3642183E-1,1.2688522E-1,5.3207453E-2,1.4889115E0,1.438269E-1,4.4846673E-2,1.263058E-1,-1.3884878E-1,1.1862745E-1,-1.407666E-1,1.01901725E-1,-1.1846074E-1,4.3445893E-2,-1.8213817E-1,5.2968074E-2,1.709962E-1,-1.1311705E-2,9.9401206E-2,-1.23039044E-1,1.4883639E-1,-1.4303477E-1,1.4257157E-1,1.4192103E-1,5.0438482E-2,1.4936243E-2,1.5308563E-1,8.7241374E-2,-1.7777777E-1,5.5247206E-2,1.5331483E-1],"categories":[],"categories_nodes":[],"categories_segments":[],"categories_sizes":[],"default_left":[0,0,0,0,0,0,0,0,0,0,0,0,0,0,0,0,0,0,0,0,0,0,0,0,0,0,0,0,0,0,0,0,0,0,0,0,0,0,0,0,0,0,0,0,0,0,0,0,0,0,0,0,0,0,0,0,0,0,0,0,0,0,0,0,0,0,0,0,0,0,0,0,0,0,0,0,0,0,0,0,0,0,0,0,0,0,0,0,0,0,0,0,0,0,0,0,0,0,0,0,0,0,0,0,0,0,0,0,0,0,0,0,0,0,0,0,0,0,0,0,0,0,0,0,0,0,0,0,0,0,0,0,0,0,0,0,0,0,0,0,0,0,0,0,0,0,0,0,0,0,0,0,0,0,0,0,0,0,0],"id":1,"left_children":[1,3,5,7,9,11,13,15,17,19,21,23,25,-1,27,-1,29,-1,31,33,35,-1,37,39,41,43,45,47,49,51,-1,53,-1,-1,-1,55,57,-1,59,-1,-1,61,-1,-1,-1,-1,63,65,-1,67,69,-1,71,73,75,-1,77,-1,79,81,83,-1,85,-1,87,89,-1,91,-1,93,95,97,99,101,103,105,107,109,111,-1,113,-1,-1,115,117,119,121,-1,123,125,-1,-1,-1,-1,127,129,131,-1,-1,-1,-1,-1,-1,133,-1,-1,-1,-1,135,137,-1,139,141,-1,143,-1,145,147,-1,-1,-1,149,-1,151,-1,-1,-1,153,155,-1,-1,-1,157,-1,-1,-1,-1,-1,-1,-1,-1,-1,-1,-1,-1,-1,-1,-1,-1,-1,-1,-1,-1,-1,-1,-1,-1,-1,-1],"loss_changes":[4.142391E2,2.5072867E2,8.613318E1,1.1254033E2,1.1789432E2,6.6928986E1,5.1753815E1,4.3630905E1,1.4561188E1,6.687781E1,9.2981476E1,3.3362278E1,5.1716736E1,0E0,1.6735168E1,0E0,1.8694103E1,0E0,1.3367905E1,4.0015747E1,6.1765564E1,0E0,4.7010555E1,1.7402437E1,2.1863487E1,2.0641586E1,7.1437035E1,3.1982193E1,1.2402191E1,1.0653013E1,0E0,9.382202E0,0E0,0E0,0E0,3.2381653E1,2.058868E1,0E0,3.516477E1,0E0,0E0,1.3324921E1,0E0,0E0,0E0,0E0,3.3952232E1,1.2077627E1,0E0,6.9155884E-1,2.2685287E1,0E0,3.3813725E0,2.2185604E1,2.43618E0,0E0,3.7678246E1,0E0,1.6643173E1,2.327984E1,2.4472605E1,0E0,7.6214447E0,0E0,1.2500004E1,5.45842E0,0E0,1.1629508E1,0E0,3.20857E1,6.2891083E0,1.2831864E1,2.8302383E-1,1.9224472E1,1.1354801E1,4.813385E-2,5.3166723E0,3.4467278E1,2.3374313E1,0E0,1.264501E1,0E0,0E0,3.1568396E1,2.8304749E0,1.663235E1,4.6905594E0,0E0,1.1184502E1,1.02591505E1,0E0,0E0,0E0,0E0,2.5849869E1,1.0839814E1,1.9207001E0,0E0,0E0,0E0,0E0,0E0,0E0,5.2818756E0,0E0,0E0,0E0,0E0,1.1579241E1,1.5456267E1,0E0,1.0014934E1,2.3425507E1,0E0,2.7687874E0,0E0,2.2282455E1,1.08636E1,0E0,0E0,0E0,2.0442158E1,0E0,4.042511E0,0E0,0E0,0E0,6.670063E0,2.484557E1,0E0,0E0,0E0,1.9962921E0,0E0,0E0,0E0,0E0,0E0,0E0,0E0,0E0,0E0,0E0,0E0,0E0,0E0,0E0,0E0,0E0,0E0,0E0,0E0,0E0,0E0,0E0,0E0,0E0,0E0,0E0],"parents":[2147483647,0,0,1,1,2,2,3,3,4,4,5,5,6,6,7,7,8,8,9,9,10,10,11,11,12,12,14,14,16,16,18,18,19,19,20,20,22,22,23,23,24,24,25,25,26,26,27,27,28,28,29,29,31,31,35,35,36,36,38,38,41,41,46,46,47,47,49,49,50,50,52,52,53,53,54,54,56,56,58,58,59,59,60,60,62,62,64,64,65,65,67,67,69,69,70,70,71,71,72,72,73,73,74,74,75,75,76,76,77,77,78,78,80,80,83,83,84,84,85,85,86,86,88,88,89,89,94,94,95,95,96,96,103,103,108,108,109,109,111,111,112,112,114,114,116,116,117,117,121,121,123,123,127,127,128,128,132,132],"right_children":[2,4,6,8,10,12,14,16,18,20,22,24,26,-1,28,-1,30,-1,32,34,36,-1,38,40,42,44,46,48,50,52,-1,54,-1,-1,-1,56,58,-1,60,-1,-1,62,-1,-1,-1,-1,64,66,-1,68,70,-1,72,74,76,-1,78,-1,80,82,84,-1,86,-1,88,90,-1,92,-1,94,96,98,100,102,104,106,108,110,112,-1,114,-1,-1,116,118,120,122,-1,124,126,-1,-1,-1,-1,128,130,132,-1,-1,-1,-1,-1,-1,134,-1,-1,-1,-1,136,138,-1,140,142,-1,144,-1,146,148,-1,-1,-1,150,-1,152,-1,-1,-1,154,156,-1,-1,-1,158,-1,-1,-1,-1,-1,-1,-1,-1,-1,-1,-1,-1,-1,-1,-1,-1,-1,-1,-1,-1,-1,-1,-1,-1,-1,-1],"split_conditions":[1.37E2,1E0,3.5E1,4.93E-1,1.1764706E0,2E0,4.1935483E-1,9.2E1,5.8E1,5.28E-1,7.9E1,5.945946E-1,1.8947369E-1,-1.7603108E-1,1.1111112E0,-1.8791634E-1,4.9E-1,-1.2563746E-1,6.16E-1,1.6E1,6.8E1,-1.9219536E-1,4.58E-1,3.030303E-1,4.419643E-1,2.9411766E-1,4.46E-1,2E0,2E0,1.3142858E0,-1.5894184E-1,9.230769E-1,-1.2389413E-1,1.4885503E-1,-1.975904E-1,3.7192982E-1,5.24E-1,-1.8217613E-1,2.1111112E0,8.4983215E-2,-1.7874567E-1,4.48E-1,-1.4334922E-1,4.12015E-2,-1.9858104E-1,-1.8823218E-1,1.3888888E0,9.117647E-1,-1.7215148E-1,4.26E-1,1.0277778E0,-1.278427E-1,4.09375E0,5.23E-1,4.23676E-1,-1.9380994E-1,1.01E2,-1.5320021E-1,3.2894737E-1,1.8888888E0,5.31E-1,-1.20383166E-1,1.46E2,-1.6548884E-1,5.882353E-1,6.969697E-1,-1.23242676E-1,4.71E-1,1.595192E-1,5.18E-1,4.82E-1,3.7E1,4.8E1,9E0,8.8235295E-1,5.04E-1,4.23E-1,2.7E1,5.46E-1,-1.3283433E-1,1.3E1,-1.8304643E-1,1.0646744E-1,1.3E1,4.037037E0,1.0277778E0,1.0277778E0,-1.265541E-1,5.292887E-1,3.9E1,1.4809448E-1,1.4487693E-1,-1.19440354E-1,-1.7181627E-1,5.49E-1,3.8E1,4.47E-1,-1.3256527E-1,1.457055E-1,1.5786962E-1,7.182092E-2,1.2582633E-1,-1.6740741E-1,5.74E-1,-1.1826128E-1,8.468547E-2,1.6977052E-1,1.4978085E-1,4.98E-1,3.2E1,-1.9108169E-1,4.709677E0,4.6261683E-1,-1.16485275E-1,4.76E-1,-1.7340906E-1,4.3333335E0,2.7E1,1.5322733E-1,1.20556526E-1,-1.4863254E-1,8.7E1,1.5477252E-1,1.2E0,-1.18030645E-1,-1.3219003E-1,1.2403231E-1,4.48E-1,1.40625E0,-1.3642183E-1,1.2688522E-1,5.3207453E-2,4.8E1,1.438269E-1,4.4846673E-2,1.263058E-1,-1.3884878E-1,1.1862745E-1,-1.407666E-1,1.01901725E-1,-1.1846074E-1,4.3445893E-2,-1.8213817E-1,5.2968074E-2,1.709962E-1,-1.1311705E-2,9.9401206E-2,-1.23039044E-1,1.4883639E-1,-1.4303477E-1,1.4257157E-1,1.4192103E-1,5.0438482E-2,1.4936243E-2,1.5308563E-1,8.7241374E-2,-1.7777777E-1,5.5247206E-2,1.5331483E-1],"split_indices":[3,13,0,7,18,13,18,3,3,11,3,18,20,0,15,0,11,0,11,0,5,0,11,18,20,18,6,13,13,15,0,18,0,0,0,20,7,0,15,0,0,11,0,0,0,0,15,15,0,6,18,0,16,7,20,0,3,0,20,18,7,0,3,0,18,15,0,11,0,11,11,0,5,2,18,11,6,0,11,0,2,0,0,2,16,15,15,0,20,0,0,0,0,0,7,0,6,0,0,0,0,0,0,7,0,0,0,0,7,5,0,16,20,0,6,0,15,2,0,0,0,2,0,18,0,0,0,6,15,0,0,0,5,0,0,0,0,0,0,0,0,0,0,0,0,0,0,0,0,0,0,0,0,0,0,0,0,0,0],"split_type":[0,0,0,0,0,0,0,0,0,0,0,0,0,0,0,0,0,0,0,0,0,0,0,0,0,0,0,0,0,0,0,0,0,0,0,0,0,0,0,0,0,0,0,0,0,0,0,0,0,0,0,0,0,0,0,0,0,0,0,0,0,0,0,0,0,0,0,0,0,0,0,0,0,0,0,0,0,0,0,0,0,0,0,0,0,0,0,0,0,0,0,0,0,0,0,0,0,0,0,0,0,0,0,0,0,0,0,0,0,0,0,0,0,0,0,0,0,0,0,0,0,0,0,0,0,0,0,0,0,0,0,0,0,0,0,0,0,0,0,0,0,0,0,0,0,0,0,0,0,0,0,0,0,0,0,0,0,0,0],"sum_hessian":[9.6219824E2,5.5261694E2,4.095813E2,1.4162521E2,4.1099173E2,1.5950558E2,2.5007573E2,3.8033188E1,1.0359202E2,2.5903424E2,1.5195749E2,7.802448E1,8.14811E1,5.214057E0,2.4486166E2,1.9483652E1,1.8549536E1,1.7495413E0,1.01842476E2,1.2558063E2,1.3345363E2,2.6454967E1,1.2550252E2,9.121526E0,6.8902954E1,2.504387E1,5.643723E1,2.4452068E1,2.2040959E2,1.5056457E1,3.4930794E0,1.0034781E2,1.4946717E0,2.7385468E0,1.2284208E2,1.1011436E2,2.3339262E1,1.0488079E1,1.1501444E2,3.1582165E0,5.96331E0,6.6403404E1,2.4995456E0,3.9183364E0,2.1125534E1,1.2960928E1,4.3476303E1,1.9736504E1,4.7155647E0,1.0094651E2,1.1946308E2,1.4847445E0,1.35717125E1,4.9046894E1,5.130091E1,3.6456356E1,7.3658005E1,2.9848723E0,2.035439E1,1.3416381E1,1.0159806E2,1.4997076E0,6.49037E1,4.485163E0,3.899114E1,1.824413E1,1.4923747E0,9.5082E0,9.143832E1,4.3764748E1,7.569833E1,4.7386208E0,8.833092E0,7.6613464E0,4.1385548E1,4.093609E1,1.0364822E1,3.906077E1,3.4597237E1,1.9993601E0,1.8355028E1,1.0483574E1,2.932808E0,7.790658E1,2.369148E1,8.326014E0,5.6577686E1,1.4885664E0,3.750257E1,4.3977137E0,1.38464155E1,8.271978E0,1.2362223E0,4.973507E0,3.879124E1,4.409425E0,7.128891E1,1.9994736E0,2.739147E0,5.396284E0,3.4368074E0,2.6720314E0,4.989315E0,4.0147724E1,1.2378243E0,3.1594095E0,3.777668E1,5.702221E0,4.662602E0,8.318245E0,3.0742523E1,1.757468E1,1.7022556E1,1.2417462E0,1.7113283E1,6.492636E0,7.141394E1,4.2314105E0,1.946007E1,5.841134E0,2.4848797E0,1.10972E1,4.5480488E1,3.626348E1,1.2390924E0,1.7392634E0,2.6584501E0,2.6505154E1,1.2286089E1,1.7300575E0,2.6793673E0,3.6518738E0,6.763704E1,3.2325108E1,7.822618E0,2.6754146E0,1.9871874E0,5.818845E0,2.4993997E0,1.6074997E1,1.4996843E0,7.7979655E0,9.224591E0,3.6535056E0,1.3459777E1,3.719332E1,3.4220623E1,1.4928528E0,2.7385578E0,2.4992526E0,8.597947E0,2.871118E1,7.5523E0,4.3891063E0,2.2116047E1,6.5680118E0,5.7180767E0,3.659468E0,6.397757E1],"tree_param":{"num_deleted":"0","num_feature":"22","num_nodes":"159","size_leaf_vector":"1"}},{"base_weights":[5.440986E-2,-7.2199035E-1,5.7814074E-1,-1.5723724E0,-3.146811E-1,-2.6150724E-1,9.6252215E-1,1.8032874E-1,-1.7195061E0,-1.2502891E0,-1.5326E-1,-1.1059425E0,2.3986301E-1,-1.0960892E-1,1.0363028E0,-1.3464789E-1,9.5459217E-1,-1.8012103E-1,-1.228549E0,-1.7637366E-1,1.1730944E-1,-4.2598084E-1,4.3233848E-1,-1.6048503E0,1.9188054E-1,-7.320149E-1,6.535136E-1,-1.6075085E-1,2.944813E-1,-6.82732E-1,1.074189E0,1.3765962E-1,4.3381765E-1,9.7161315E-2,-1.7204124E-1,1.3591747E-1,-1.4878239E-1,-7.531715E-1,3.5368782E-1,-3.256081E-1,8.583813E-1,-1.7992885E-1,1.2648983E-1,-1.5250234E-1,7.9938805E-1,5.043165E-1,-1.8128495E-1,7.778531E-1,-1.5002744E-1,6.4353806E-1,-1.5424146E-1,-1.6745368E-1,1.1571622E-1,1.1109402E0,-6.1770123E-1,-9.9618316E-2,1.1969685E-1,-7.162429E-2,-1.174139E0,-1.0521321E0,9.270677E-1,-1.6649911E-1,3.608204E-1,-1.229702E-1,9.7977626E-1,1.1976556E0,-1.22265175E-1,-1.4726655E-1,1.080293E0,4.2876226E-1,1.2670474E0,-1.383959E-1,1.0762467E0,1.7530227E-1,1.1482412E0,-1.6132812E-1,9.639177E-2,8.076706E-1,-9.4389623E-1,3.8773608E-1,-1.5345435E0,1.2548463E-1,-1.7173336E-1,-3.307736E-1,1.221758E0,-1.4961326E-1,1.062045E0,5.2425146E-1,1.1917851E0,1.4821593E-1,4.0639484E-1,1.5163846E-1,-1.2091269E-1,-5.9782577E-1,9.253799E-1,1.4250075E0,-1.1358055E-1,1.3518989E-1,2.1649946E-1,-1.5008663E-1,8.823715E-1,-1.1673746E-1,1.1619786E0,1.0746795E0,-1.2335118E-1,6.3331306E-1,-1.7228572E-1,8.8569957E-1,-1.2858729E-1,6.1852377E-2,-1.6854707E0,1.21506505E-1,-1.5165763E-1,-1.0180139E-1,1.3682129E0,1.5796982E-1,5.4254234E-1,-1.4286996E-1,1.0381229E0,-1.0877963E-1,1.3304931E0,1.1880813E-1,-1.0349619E-1,-1.7045522E-1,1.02122344E-1,1.063782E0,-1.1167731E-1,3.4876204E-1,1.569325E0,-1.1500601E-1,9.621056E-2,4.1148003E-2,1.4849937E-1,1.1743504E0,-1.2287972E-1,1.3127193E-1,-1.1052119E-1,-1.18906096E-1,1.2377196E-1,1.2727122E-1,-1.1764919E-1,-1.857635E-1,1.5968917E-2,1.4562133E-1,5.918159E-2,1.0580554E-1,-1.1203288E-1,1.3616079E-1,2.5555177E-2,1.5111631E-1,3.0073797E-2,6.2354244E-2,1.4818482E-1,-1.1024218E-1,1.1605803E-1,7.8060366E-2,1.6405718E-1,-1.3666537E-1,1.1919673E-1,9.187947E-2,1.302983E-1],"categories":[],"categories_nodes":[],"categories_segments":[],"categories_sizes":[],"default_left":[0,0,0,0,0,0,0,0,0,0,0,0,0,0,0,0,0,0,0,0,0,0,0,0,0,0,0,0,0,0,0,0,0,0,0,0,0,0,0,0,0,0,0,0,0,0,0,0,0,0,0,0,0,0,0,0,0,0,0,0,0,0,0,0,0,0,0,0,0,0,0,0,0,0,0,0,0,0,0,0,0,0,0,0,0,0,0,0,0,0,0,0,0,0,0,0,0,0,0,0,0,0,0,0,0,0,0,0,0,0,0,0,0,0,0,0,0,0,0,0,0,0,0,0,0,0,0,0,0,0,0,0,0,0,0,0,0,0,0,0,0,0,0,0,0,0,0,0,0,0,0,0,0,0,0,0,0,0,0,0,0],"id":2,"left_children":[1,3,5,7,9,11,13,15,17,19,21,23,25,27,29,-1,31,-1,33,-1,35,37,39,41,43,45,47,-1,49,51,53,-1,55,-1,-1,-1,-1,57,59,61,63,-1,-1,-1,65,67,-1,69,-1,71,-1,-1,-1,73,75,-1,-1,77,79,81,83,-1,85,-1,87,89,-1,-1,91,93,95,-1,97,99,101,-1,-1,103,105,107,109,-1,-1,111,113,-1,115,117,119,-1,121,-1,-1,123,125,127,-1,-1,129,-1,131,-1,133,135,-1,137,-1,139,-1,-1,141,-1,-1,-1,143,-1,145,-1,147,-1,149,-1,-1,-1,-1,151,-1,153,155,-1,-1,157,-1,159,-1,-1,-1,-1,-1,-1,-1,-1,-1,-1,-1,-1,-1,-1,-1,-1,-1,-1,-1,-1,-1,-1,-1,-1,-1,-1,-1],"loss_changes":[3.887523E2,1.3291069E2,1.8449577E2,3.241217E1,3.9327713E1,7.649601E1,3.110675E1,1.3752072E1,2.397644E0,2.7145409E1,3.6007145E1,4.385608E1,4.6227432E1,1.6290401E1,2.4614288E1,0E0,1.0692081E0,0E0,2.2821775E1,0E0,2.4765038E1,3.9434486E1,2.3454424E1,2.9443161E1,2.1629822E1,4.694381E1,2.2685398E1,0E0,1.4729793E1,1.7482288E1,2.3018524E1,0E0,6.4898295E0,0E0,0E0,0E0,0E0,3.103772E1,3.8108818E1,2.5010117E1,1.292025E1,0E0,0E0,0E0,1.3632822E1,2.0777622E1,0E0,1.2542267E1,0E0,1.7903427E1,0E0,0E0,0E0,1.2079468E1,1.4590625E1,0E0,0E0,3.334579E1,3.83042E1,2.3354397E1,1.2730162E1,0E0,2.5516216E1,0E0,3.647213E0,2.35322E0,0E0,0E0,1.5436738E1,2.41209E1,1.3535759E1,0E0,3.494709E0,1.8711681E1,1.2115112E1,0E0,0E0,1.3149696E1,2.7858948E1,1.2271523E1,1.8795532E1,0E0,0E0,1.4855266E1,1.0300159E1,0E0,2.887227E0,1.7374035E1,1.074366E1,0E0,6.6940145E0,0E0,0E0,2.983545E1,1.0104696E1,4.0975113E0,0E0,0E0,6.2729774E0,0E0,5.488859E0,0E0,1.1402496E1,1.1683422E1,0E0,1.0210969E1,0E0,1.0186285E1,0E0,0E0,1.6600037E1,0E0,0E0,0E0,9.0873337E-1,0E0,8.448124E0,0E0,2.9721184E0,0E0,4.785347E0,0E0,0E0,0E0,0E0,4.6081276E0,0E0,6.95979E0,1.8507385E-1,0E0,0E0,1.0698281E1,0E0,9.831543E0,0E0,0E0,0E0,0E0,0E0,0E0,0E0,0E0,0E0,0E0,0E0,0E0,0E0,0E0,0E0,0E0,0E0,0E0,0E0,0E0,0E0,0E0,0E0,0E0,0E0,0E0,0E0],"parents":[2147483647,0,0,1,1,2,2,3,3,4,4,5,5,6,6,7,7,8,8,9,9,10,10,11,11,12,12,13,13,14,14,16,16,18,18,20,20,21,21,22,22,23,23,24,24,25,25,26,26,28,28,29,29,30,30,32,32,37,37,38,38,39,39,40,40,44,44,45,45,47,47,49,49,53,53,54,54,57,57,58,58,59,59,60,60,62,62,64,64,65,65,68,68,69,69,70,70,72,72,73,73,74,74,77,77,78,78,79,79,80,80,83,83,84,84,86,86,87,87,88,88,90,90,93,93,94,94,95,95,98,98,100,100,102,102,103,103,105,105,107,107,110,110,114,114,116,116,118,118,120,120,125,125,127,127,128,128,131,131,133,133],"right_children":[2,4,6,8,10,12,14,16,18,20,22,24,26,28,30,-1,32,-1,34,-1,36,38,40,42,44,46,48,-1,50,52,54,-1,56,-1,-1,-1,-1,58,60,62,64,-1,-1,-1,66,68,-1,70,-1,72,-1,-1,-1,74,76,-1,-1,78,80,82,84,-1,86,-1,88,90,-1,-1,92,94,96,-1,98,100,102,-1,-1,104,106,108,110,-1,-1,112,114,-1,116,118,120,-1,122,-1,-1,124,126,128,-1,-1,130,-1,132,-1,134,136,-1,138,-1,140,-1,-1,142,-1,-1,-1,144,-1,146,-1,148,-1,150,-1,-1,-1,-1,152,-1,154,156,-1,-1,158,-1,160,-1,-1,-1,-1,-1,-1,-1,-1,-1,-1,-1,-1,-1,-1,-1,-1,-1,-1,-1,-1,-1,-1,-1,-1,-1,-1,-1],"split_conditions":[3.08E2,4.38E-1,4.42E-1,2.4124514E-1,3.516129E0,1.02E2,2.8057142E1,4.39E-1,3.2E1,2.81E2,7.61E-1,4.86E-1,3.78E2,5.2941175E0,4.89E-1,-1.3464789E-1,1.94E2,-1.8012103E-1,3.203125E1,-1.7637366E-1,2.4875E1,5.96E-1,2.56E2,4.7272725E0,3.44E-1,3.25E2,3.5675674E1,-1.6075085E-1,7E1,1.83E2,5.6747407E-1,1.3765962E-1,3.7E1,9.7161315E-2,-1.7204124E-1,1.3591747E-1,-1.4878239E-1,2.17E2,2.2E2,4.84375E0,4.49E-1,-1.7992885E-1,1.2648983E-1,-1.5250234E-1,5.02E-1,4.15E-1,-1.8128495E-1,5E-1,-1.5002744E-1,4.9E1,-1.5424146E-1,-1.6745368E-1,1.1571622E-1,8.6E1,4.36E2,-9.9618316E-2,1.1969685E-1,6.22E-1,4.5E-1,6.01E-1,1.48E2,-1.6649911E-1,3.4192038E-1,-1.229702E-1,1.23E2,4.3E1,-1.22265175E-1,-1.4726655E-1,4.59E-1,5.1842103E0,4.23E-1,-1.383959E-1,1.64E2,7.3E1,3.1470587E0,-1.6132812E-1,9.639177E-2,5.74E-1,5.08E-1,3.9366516E-1,3.8125E0,1.2548463E-1,-1.7173336E-1,3.939394E-1,8.064516E-1,-1.4961326E-1,2.4E1,4.5263157E0,7.75E-1,1.4821593E-1,3.45E-1,1.5163846E-1,-1.2091269E-1,4.882353E0,4.4705883E-1,7.86E-1,-1.1358055E-1,1.3518989E-1,8.575758E0,-1.5008663E-1,4.7E-1,-1.1673746E-1,4.72E-1,2.97E-1,-1.2335118E-1,4.96E-1,-1.7228572E-1,2.68E2,-1.2858729E-1,6.1852377E-2,6.13E-1,1.21506505E-1,-1.5165763E-1,-1.0180139E-1,6.6E1,1.5796982E-1,2.415625E1,-1.4286996E-1,4.6842103E0,-1.0877963E-1,8.4E-1,1.1880813E-1,-1.0349619E-1,-1.7045522E-1,1.02122344E-1,7.4117646E0,-1.1167731E-1,6.5E1,4.2E2,-1.1500601E-1,9.621056E-2,3.8E1,1.4849937E-1,3.73E2,-1.2287972E-1,1.3127193E-1,-1.1052119E-1,-1.18906096E-1,1.2377196E-1,1.2727122E-1,-1.1764919E-1,-1.857635E-1,1.5968917E-2,1.4562133E-1,5.918159E-2,1.0580554E-1,-1.1203288E-1,1.3616079E-1,2.5555177E-2,1.5111631E-1,3.0073797E-2,6.2354244E-2,1.4818482E-1,-1.1024218E-1,1.1605803E-1,7.8060366E-2,1.6405718E-1,-1.3666537E-1,1.1919673E-1,9.187947E-2,1.302983E-1],"split_indices":[1,6,6,20,16,3,19,11,19,1,9,7,1,16,11,0,1,0,19,0,19,6,1,16,8,1,19,0,5,3,20,0,0,0,0,0,0,1,1,16,6,0,0,0,7,6,0,20,0,5,0,0,0,3,1,0,0,9,6,11,3,0,20,0,3,5,0,0,7,16,6,0,3,5,16,0,0,11,11,20,16,0,0,15,15,0,0,16,9,0,8,0,0,15,20,9,0,0,16,0,6,0,8,8,0,11,0,1,0,0,11,0,0,0,5,0,19,0,16,0,9,0,0,0,0,16,0,5,1,0,0,0,0,1,0,0,0,0,0,0,0,0,0,0,0,0,0,0,0,0,0,0,0,0,0,0,0,0,0,0,0],"split_type":[0,0,0,0,0,0,0,0,0,0,0,0,0,0,0,0,0,0,0,0,0,0,0,0,0,0,0,0,0,0,0,0,0,0,0,0,0,0,0,0,0,0,0,0,0,0,0,0,0,0,0,0,0,0,0,0,0,0,0,0,0,0,0,0,0,0,0,0,0,0,0,0,0,0,0,0,0,0,0,0,0,0,0,0,0,0,0,0,0,0,0,0,0,0,0,0,0,0,0,0,0,0,0,0,0,0,0,0,0,0,0,0,0,0,0,0,0,0,0,0,0,0,0,0,0,0,0,0,0,0,0,0,0,0,0,0,0,0,0,0,0,0,0,0,0,0,0,0,0,0,0,0,0,0,0,0,0,0,0,0,0],"sum_hessian":[9.5402026E2,3.8415482E2,5.698655E2,1.2348398E2,2.6067084E2,1.79055E2,3.9081046E2,9.545804E0,1.1393818E2,3.7363556E1,2.2330728E2,6.625643E1,1.1279855E2,2.5131456E1,3.6567902E2,2.9632947E0,6.582509E0,9.53941E1,1.854408E1,2.6954262E1,1.0409294E1,1.5254E2,7.076729E1,4.7687775E1,1.8568657E1,3.3446316E1,7.935224E1,4.7066274E0,2.0424828E1,7.518438E0,3.5816058E2,2.7282984E0,3.8542106E0,3.2100008E0,1.533408E1,5.955136E0,4.4541583E0,1.0747269E2,4.5067307E1,2.5549494E1,4.5217796E1,4.501109E1,2.676686E0,4.458369E0,1.4110288E1,1.5849729E1,1.7596588E1,7.562519E1,3.7270443E0,1.7709278E1,2.7155511E0,4.9434943E0,2.5749435E0,3.5088208E2,7.2784967E0,1.2348948E0,2.6193159E0,4.1482533E1,6.599016E1,1.2814236E1,3.225307E1,8.174175E0,1.7375319E1,1.9827784E0,4.3235016E1,1.2129017E1,1.9812709E0,3.2246447E0,1.2625084E1,4.5227295E1,3.0397898E1,2.7281086E0,1.4981169E1,1.3670807E1,3.3721127E2,4.4545054E0,2.8239915E0,2.0694986E1,2.0787548E1,1.2358146E1,5.363201E1,2.6695573E0,1.0144678E1,6.0988026E0,2.6154266E1,4.4520335E0,1.2923285E1,1.483441E1,2.8400608E1,8.2790575E0,3.8499596E0,1.0888656E1,1.7364286E0,1.4679216E1,3.054808E1,2.8904696E1,1.4932019E0,1.0910582E1,4.0705867E0,3.7228386E0,9.9479685E0,1.4934431E0,3.3571783E2,1.8719742E1,1.9752445E0,6.934276E0,1.38532715E1,9.887127E0,2.4710188E0,3.3103087E0,5.03217E1,2.6367714E0,3.4620314E0,1.2399753E0,2.4914291E1,5.4509506E0,7.472334E0,2.7193484E0,1.2115061E1,1.236536E0,2.7164072E1,2.6101341E0,1.2398256E0,8.687755E0,5.9914613E0,2.9057842E1,1.4902378E0,3.8216221E0,2.5083073E1,1.2454518E0,2.825135E0,4.597885E0,5.3500834E0,3.344957E2,1.222145E0,1.7235468E1,1.4842732E0,1.4861116E0,5.4481645E0,8.647147E0,1.2399795E0,4.602092E1,4.3007827E0,2.1591421E1,3.3228703E0,5.9816556E0,1.490678E0,8.048289E0,4.066772E0,2.27118E1,4.4522724E0,1.5367147E1,1.3690695E1,1.242535E0,2.5790873E0,3.0686505E0,2.2014423E1,1.9836859E0,2.6141992E0,1.1472114E2,2.1977455E2],"tree_param":{"num_deleted":"0","num_feature":"22","num_nodes":"161","size_leaf_vector":"1"}},{"base_weights":[8.263284E-2,-7.0142704E-1,6.3014394E-1,-1.002934E0,3.1579784E-1,-3.2288486E-1,8.590048E-1,-1.3254446E0,-4.4874632E-1,-4.6212614E-1,9.1966355E-1,-1.1816107E0,6.8325055E-1,4.0404478E-1,1.0010606E0,2.8292552E-1,-1.4011886E0,1.5606539E-1,-7.9657507E-1,-1.3723072E0,7.582968E-1,-4.2470178E-1,1.1452187E0,-1.7098165E-1,1.23090506E-1,-8.078629E-1,1.0978432E0,2.1204846E-2,9.689386E-1,-1.4499062E-1,1.0325273E0,-1.356309E-1,1.2942806E-1,-1.6054821E0,-1.039584E0,5.0834244E-1,-1.5577714E-1,5.189012E-1,-1.145414E0,7.899684E-2,-1.7211379E-1,1.4526562E-1,4.9159143E-2,-1.4389342E-1,1.24754146E-1,1.2471079E0,-1.1280228E-1,-1.5036161E-1,7.703476E-1,-1.556714E-1,1.1019868E-1,-1.1259055E-1,1.2354112E0,2.7206278E-1,-1.6906363E-1,-1.2003726E-1,1.0696563E0,4.1426316E-1,1.1298387E0,-1.6843097E-1,1.00950554E-1,-1.6490176E-1,-5.0090563E-1,-1.4500062E-1,8.719351E-1,-1.2990849E-1,9.747554E-1,-1.2572421E0,3.8951358E-1,-1.5188056E-1,9.9246836E-1,1.6582133E-1,1.3586028E0,1.0652411E0,-1.2620993E-1,6.139151E-1,1.4675165E0,4.4122186E-1,-1.6060607E-1,1.2205126E0,-1.4036585E-1,-1.546443E-1,7.806927E-1,9.506046E-1,1.3434386E0,1.3209936E-1,-1.2436875E-1,4.7455293E-1,-1.2901409E0,1.1198765E0,-1.3038835E-1,1.2294682E0,2.83732E-1,-5.778227E-1,-1.6748752E-1,1.1209202E-1,-9.5086135E-2,5.3852297E-2,1.2456288E-1,1.1154294E-1,-1.1245352E-1,8.946873E-1,1.4650981E0,4.3423828E-2,1.2548524E-1,1.1164008E0,-1.3647525E-1,1.5356214E0,6.723374E-2,-3.4346604E-1,8.593039E-1,1.3086869E0,3.1444497E-2,-1.517323E-1,1.14124335E-1,-1.3354242E-1,9.730374E-1,1.0023038E0,-3.5673434E-1,1.3867965E0,7.260057E-1,1.0315067E0,-1.3622674E-1,-1.6578975E-1,6.165969E-2,1.5005173E-1,6.648783E-1,1.4411749E-1,6.249271E-2,-9.891915E-2,1.094239E-1,-1.1786973E0,9.787347E-2,2.357534E-1,1.2892601E-1,1.5882257E-1,1.0245649E0,1.483895E-1,3.7742862E-1,7.289793E-2,1.6122316E-1,-1.5802027E-1,3.406595E-1,-1.2562011E-1,1.0615621E0,4.3857226E-1,1.4040778E0,1.105286E0,-1.1928717E-1,6.223232E-1,1.1593167E0,-1.6373847E-1,1.2776102E-1,9.9985135E-1,1.4321005E0,1.2795876E-1,-1.4437123E-1,1.3522209E-1,-1.0718777E-1,-1.1876024E-1,1.0768356E-1,7.154208E-2,-1.6413456E-1,1.0990875E-1,-1.0859902E-1,4.319575E-2,1.295682E-1,1.1803549E-1,-1.0951795E-1,6.846015E-2,-1.1624265E-1,6.57318E-2,1.4285754E-1,1.312257E-1,-1.2013616E-1,9.2643216E-2,1.5599127E-1,1.2239102E-1,-1.0699691E-1,-1.6300923E-1,9.2214346E-2,1.2364441E-1,8.044048E-2,2.250024E-2,1.2634349E-1,5.8904063E-2,1.4520958E-1],"categories":[],"categories_nodes":[],"categories_segments":[],"categories_sizes":[],"default_left":[0,0,0,0,0,0,0,0,0,0,0,0,0,0,0,0,0,0,0,0,0,0,0,0,0,0,0,0,0,0,0,0,0,0,0,0,0,0,0,0,0,0,0,0,0,0,0,0,0,0,0,0,0,0,0,0,0,0,0,0,0,0,0,0,0,0,0,0,0,0,0,0,0,0,0,0,0,0,0,0,0,0,0,0,0,0,0,0,0,0,0,0,0,0,0,0,0,0,0,0,0,0,0,0,0,0,0,0,0,0,0,0,0,0,0,0,0,0,0,0,0,0,0,0,0,0,0,0,0,0,0,0,0,0,0,0,0,0,0,0,0,0,0,0,0,0,0,0,0,0,0,0,0,0,0,0,0,0,0,0,0,0,0,0,0,0,0,0,0,0,0,0,0,0,0,0,0,0,0,0,0,0,0,0,0,0,0],"id":3,"left_children":[1,3,5,7,9,11,13,15,17,19,21,23,25,27,29,31,33,35,37,39,41,43,45,-1,47,49,51,53,55,-1,57,-1,-1,59,61,63,-1,65,67,-1,-1,-1,69,-1,-1,71,-1,-1,73,-1,-1,-1,75,77,-1,-1,79,81,83,-1,85,-1,87,-1,89,-1,91,93,95,-1,97,99,101,103,-1,105,107,109,-1,111,113,-1,115,117,119,-1,-1,121,123,125,-1,127,129,131,-1,-1,-1,-1,-1,-1,-1,133,135,-1,-1,137,-1,139,-1,141,143,145,-1,-1,-1,-1,147,149,151,153,155,157,-1,-1,-1,-1,159,-1,-1,-1,-1,161,-1,163,-1,-1,165,-1,167,-1,-1,-1,169,-1,171,173,175,177,-1,179,181,-1,-1,183,185,-1,-1,-1,-1,-1,-1,-1,-1,-1,-1,-1,-1,-1,-1,-1,-1,-1,-1,-1,-1,-1,-1,-1,-1,-1,-1,-1,-1,-1,-1,-1,-1],"loss_changes":[4.2040097E2,1.2383128E2,1.26032074E2,5.4970062E1,4.403587E1,9.78964E1,2.9660645E1,2.4274994E1,2.4501436E1,4.684642E1,1.6436085E1,4.2244392E1,3.326754E1,2.428009E1,2.878537E1,1.7749657E1,1.21719055E1,2.68406E1,3.4429005E1,1.9444317E1,8.91979E0,1.5849596E1,1.1902096E1,0E0,2.0647436E1,1.8836601E1,1.405814E1,2.9660088E1,1.119635E1,0E0,2.0584808E1,0E0,0E0,1.602716E1,2.2310303E1,2.7284302E1,0E0,1.4644002E1,1.0546448E1,0E0,0E0,0E0,1.6400087E1,0E0,0E0,5.0604706E0,0E0,0E0,9.677022E0,0E0,0E0,0E0,4.7929688E0,1.9824104E1,0E0,0E0,8.181885E0,3.6530563E1,1.0275604E1,0E0,1.1729803E1,0E0,3.0518177E1,0E0,1.8424025E1,0E0,2.0233593E0,1.4594994E1,5.714857E0,0E0,1.21183395E-1,7.671814E0,6.4595795E-1,9.7259045E-1,0E0,1.3904132E1,4.8496246E-1,1.86605E1,0E0,2.7140503E0,1.1899059E1,0E0,1.843032E1,1.1678497E1,2.614151E0,0E0,0E0,1.9926287E1,1.626764E1,3.984398E0,0E0,3.2132244E-1,6.168613E0,2.2110138E1,0E0,0E0,0E0,0E0,0E0,0E0,0E0,2.2864203E0,3.492737E-2,0E0,0E0,2.2860584E0,0E0,3.71521E-1,0E0,1.7606691E1,1.7082718E1,2.3171844E0,0E0,0E0,0E0,0E0,1.2535347E1,8.907288E0,1.697193E1,7.6441956E-1,1.5028185E1,1.1204641E1,0E0,0E0,0E0,0E0,1.264888E1,0E0,0E0,0E0,0E0,1.5738073E1,0E0,6.8480873E0,0E0,0E0,9.685068E-1,0E0,6.9941835E0,0E0,0E0,0E0,7.935831E0,0E0,4.1257286E0,8.662282E0,8.9141464E-1,1.0966728E1,0E0,3.482875E1,2.0997467E0,0E0,0E0,3.0742912E0,9.962616E-1,0E0,0E0,0E0,0E0,0E0,0E0,0E0,0E0,0E0,0E0,0E0,0E0,0E0,0E0,0E0,0E0,0E0,0E0,0E0,0E0,0E0,0E0,0E0,0E0,0E0,0E0,0E0,0E0,0E0,0E0,0E0,0E0],"parents":[2147483647,0,0,1,1,2,2,3,3,4,4,5,5,6,6,7,7,8,8,9,9,10,10,11,11,12,12,13,13,14,14,15,15,16,16,17,17,18,18,19,19,20,20,21,21,22,22,24,24,25,25,26,26,27,27,28,28,30,30,33,33,34,34,35,35,37,37,38,38,42,42,45,45,48,48,52,52,53,53,56,56,57,57,58,58,60,60,62,62,64,64,66,66,67,67,68,68,70,70,71,71,72,72,73,73,75,75,76,76,77,77,79,79,80,80,82,82,83,83,84,84,87,87,88,88,89,89,91,91,92,92,93,93,101,101,102,102,105,105,107,107,109,109,110,110,111,111,116,116,117,117,118,118,119,119,120,120,121,121,126,126,131,131,133,133,136,136,138,138,142,142,144,144,145,145,146,146,147,147,149,149,150,150,153,153,154,154],"right_children":[2,4,6,8,10,12,14,16,18,20,22,24,26,28,30,32,34,36,38,40,42,44,46,-1,48,50,52,54,56,-1,58,-1,-1,60,62,64,-1,66,68,-1,-1,-1,70,-1,-1,72,-1,-1,74,-1,-1,-1,76,78,-1,-1,80,82,84,-1,86,-1,88,-1,90,-1,92,94,96,-1,98,100,102,104,-1,106,108,110,-1,112,114,-1,116,118,120,-1,-1,122,124,126,-1,128,130,132,-1,-1,-1,-1,-1,-1,-1,134,136,-1,-1,138,-1,140,-1,142,144,146,-1,-1,-1,-1,148,150,152,154,156,158,-1,-1,-1,-1,160,-1,-1,-1,-1,162,-1,164,-1,-1,166,-1,168,-1,-1,-1,170,-1,172,174,176,178,-1,180,182,-1,-1,184,186,-1,-1,-1,-1,-1,-1,-1,-1,-1,-1,-1,-1,-1,-1,-1,-1,-1,-1,-1,-1,-1,-1,-1,-1,-1,-1,-1,-1,-1,-1,-1,-1],"split_conditions":[1.2454545E1,1.47E2,1.891892E-1,4.66E-1,1.1212121E0,4.27E2,2.6E1,1.94E2,1E0,4E1,9.885715E0,4.61E-1,1.9E1,1.78E2,1.880734E-1,4.054054E-1,2.7E1,3.6E1,1.932258E1,1.49E2,1.53E2,3.9E1,3.0193548E1,-1.7098165E-1,3.51E2,1.6666667E-1,8.4E1,6.8E1,3.1E1,-1.4499062E-1,4.27E-1,-1.356309E-1,1.2942806E-1,1.3E2,9.944445E0,8.969697E0,-1.5577714E-1,5.7E1,3.9E1,7.899684E-2,-1.7211379E-1,1.4526562E-1,3.22E2,-1.4389342E-1,1.24754146E-1,1.8E1,-1.1280228E-1,-1.5036161E-1,3.3E1,-1.556714E-1,1.1019868E-1,-1.1259055E-1,3.5E1,1.61E2,-1.6906363E-1,-1.2003726E-1,3.2666668E1,1.03E2,3.2967743E1,-1.6843097E-1,1.32E2,-1.6490176E-1,3.4E1,-1.4500062E-1,2.961111E1,-1.2990849E-1,6.22E-1,6.22E-1,3.1E1,-1.5188056E-1,9.2E1,4.5E1,1.59E2,5.7142857E-2,-1.2620993E-1,3.3E1,4.4186047E-1,3.11E2,-1.6060607E-1,2.3E1,2.71E2,-1.546443E-1,3.81E2,2.27E2,3.62E1,1.3209936E-1,-1.2436875E-1,7.84E-1,1.4E2,4.75E-1,-1.3038835E-1,3.1E1,2.24E2,6.15E-1,-1.6748752E-1,1.1209202E-1,-9.5086135E-2,5.3852297E-2,1.2456288E-1,1.1154294E-1,-1.1245352E-1,3.5E1,9.2E1,4.3423828E-2,1.2548524E-1,3.435484E1,-1.3647525E-1,2.0588236E-1,6.723374E-2,7.59E-1,1.3625E1,1.4E1,3.1444497E-2,-1.517323E-1,1.14124335E-1,-1.3354242E-1,4.23E-1,3.4E1,4E1,1.4314285E1,4.3E1,1.15E1,-1.3622674E-1,-1.6578975E-1,6.165969E-2,1.5005173E-1,2.5714287E-1,1.4411749E-1,6.249271E-2,-9.891915E-2,1.094239E-1,4.75E-1,9.787347E-2,3E1,1.2892601E-1,1.5882257E-1,3.15E2,1.483895E-1,3.2258064E-2,7.289793E-2,1.6122316E-1,-1.5802027E-1,1.9E1,-1.2562011E-1,4.93E-1,1E1,8.8E1,3.5533333E1,-1.1928717E-1,4.51E-1,8E-1,-1.6373847E-1,1.2776102E-1,3.4E1,1.3E1,1.2795876E-1,-1.4437123E-1,1.3522209E-1,-1.0718777E-1,-1.1876024E-1,1.0768356E-1,7.154208E-2,-1.6413456E-1,1.0990875E-1,-1.0859902E-1,4.319575E-2,1.295682E-1,1.1803549E-1,-1.0951795E-1,6.846015E-2,-1.1624265E-1,6.57318E-2,1.4285754E-1,1.312257E-1,-1.2013616E-1,9.2643216E-2,1.5599127E-1,1.2239102E-1,-1.0699691E-1,-1.6300923E-1,9.2214346E-2,1.2364441E-1,8.044048E-2,2.250024E-2,1.2634349E-1,5.8904063E-2,1.4520958E-1],"split_indices":[14,3,17,6,17,1,4,1,12,4,14,6,2,3,21,17,2,4,19,3,3,4,19,0,1,17,3,5,0,0,6,0,0,3,14,14,0,2,0,0,0,0,1,0,0,4,0,0,19,0,0,0,0,3,0,0,19,3,19,0,3,0,2,0,19,0,9,9,2,0,2,2,3,17,0,0,21,1,0,4,3,0,1,3,19,0,0,9,3,6,0,5,1,9,0,0,0,0,0,0,0,0,2,0,0,19,0,21,0,9,14,4,0,0,0,0,6,0,0,14,4,14,0,0,0,0,17,0,0,0,0,6,0,0,0,0,1,0,17,0,0,0,4,0,6,4,2,19,0,6,9,0,0,0,2,0,0,0,0,0,0,0,0,0,0,0,0,0,0,0,0,0,0,0,0,0,0,0,0,0,0,0,0,0,0,0,0],"split_type":[0,0,0,0,0,0,0,0,0,0,0,0,0,0,0,0,0,0,0,0,0,0,0,0,0,0,0,0,0,0,0,0,0,0,0,0,0,0,0,0,0,0,0,0,0,0,0,0,0,0,0,0,0,0,0,0,0,0,0,0,0,0,0,0,0,0,0,0,0,0,0,0,0,0,0,0,0,0,0,0,0,0,0,0,0,0,0,0,0,0,0,0,0,0,0,0,0,0,0,0,0,0,0,0,0,0,0,0,0,0,0,0,0,0,0,0,0,0,0,0,0,0,0,0,0,0,0,0,0,0,0,0,0,0,0,0,0,0,0,0,0,0,0,0,0,0,0,0,0,0,0,0,0,0,0,0,0,0,0,0,0,0,0,0,0,0,0,0,0,0,0,0,0,0,0,0,0,0,0,0,0,0,0,0,0,0,0],"sum_hessian":[9.772835E2,4.017207E2,5.755628E2,3.0988455E2,9.183617E1,1.11372314E2,4.6419046E2,1.950077E2,1.1487683E2,4.023655E1,5.1599617E1,5.999382E1,5.1378494E1,1.1136565E2,3.5282483E2,8.647573E0,1.8636014E2,4.2145206E1,7.273162E1,2.2976454E1,1.7260096E1,7.28662E0,4.4312996E1,4.248382E1,1.7509998E1,1.0971196E1,4.0407295E1,6.699758E1,4.436807E1,3.900922E0,3.489239E2,3.1694129E0,5.4781604E0,1.1688467E2,6.947547E1,3.5542812E1,6.602393E0,1.5142297E1,5.7589325E1,3.0161023E0,1.9960352E1,8.191158E0,9.068938E0,4.6225286E0,2.6640916E0,4.2844074E1,1.4689217E0,4.6074224E0,1.29025755E1,8.013865E0,2.9573307E0,1.9355354E0,3.847176E1,5.9168007E1,7.8295727E0,1.4841176E0,4.2883953E1,4.816521E1,3.007587E2,1.1173605E2,5.1486125E0,3.1629837E1,3.784563E1,5.097758E0,3.0445055E1,2.6648526E0,1.2477445E1,5.3847168E1,3.742158E0,3.177398E0,5.8915405E0,4.2373314E0,3.8606743E1,1.1683295E1,1.2192796E0,1.1452094E1,2.7019667E1,5.4981037E1,4.1869674E0,3.812246E1,4.7614913E0,7.077002E0,4.1088207E1,1.6649843E2,1.3426025E2,2.7085881E0,2.4400241E0,1.7104265E1,2.0741367E1,2.7766306E1,2.6787505E0,8.547586E0,3.9298584E0,2.140628E1,3.2440887E1,2.5269794E0,1.2151786E0,3.2289202E0,2.6626203E0,2.5190556E0,1.7182757E0,8.963053E0,2.964369E1,3.4597683E0,8.223527E0,9.48033E0,1.9717635E0,2.403037E1,2.9892962E0,1.9173409E1,3.580763E1,3.4336624E1,3.7858355E0,2.2066998E0,2.5547917E0,2.9283657E0,3.8159843E1,1.603891E2,6.109326E0,1.24286446E2,9.973814E0,1.3461076E1,3.643189E0,1.7497158E1,3.2442083E0,1.3867354E1,1.3898951E1,5.3056602E0,3.2419262E0,1.4430494E0,2.486809E0,1.5619478E1,5.786802E0,3.9552693E0,5.0077834E0,2.113211E1,8.5115795E0,5.6583543E0,3.8219762E0,2.9963825E0,2.1033989E1,6.3622165E0,1.2811192E1,2.6700077E0,3.3137623E1,3.9454627E0,3.0391163E1,3.6425426E1,1.7344158E0,4.834783E1,1.12041275E2,3.424261E0,2.6850648E0,1.544442E1,1.08842026E2,8.273232E0,1.7005813E0,1.1990016E1,1.4710598E0,2.18603E0,1.1712921E1,2.9589486E0,1.2660529E1,2.494423E0,1.4608464E0,3.4857285E0,5.025851E0,2.601818E0,1.2201581E0,1.0868708E1,1.9424838E0,1.7097115E1,1.6040508E1,2.7044573E0,1.2410053E0,9.184608E0,2.1206554E1,3.495648E1,1.4689505E0,5.158375E0,4.3189457E1,8.9999306E1,2.2041967E1,4.3907337E0,1.1053686E1,3.2273114E0,1.05614716E2],"tree_param":{"num_deleted":"0","num_feature":"22","num_nodes":"187","size_leaf_vector":"1"}},{"base_weights":[8.983569E-2,-5.0827235E-1,6.626161E-1,-1.2054374E0,-3.0338477E-2,-1.3980563E-1,8.7572104E-1,-1.3315754E0,-5.3311443E-1,8.691215E-1,-4.1570553E-1,7.0141286E-1,-9.5790225E-1,-1.6666737E-1,9.146525E-1,-6.902816E-1,-1.52168E0,4.8982102E-1,-1.580556E-1,9.7715706E-1,-1.4058879E-1,-1.2642788E0,6.908891E-2,-1.4543279E-1,1.0990447E0,-1.4153236E0,7.2052354E-1,1.4935851E0,7.505268E-1,-1.538819E-1,3.7865687E-2,-1.5936573E-1,-7.756108E-1,-1.2761992E-1,1.0647626E0,-5.0689083E-1,1.1244496E0,-1.6067462E-1,9.982015E-1,-4.6919066E-1,7.6270676E-1,1.2057016E0,-1.1354331E-1,-1.6451134E-1,1.1464291E-1,-1.1261076E-1,1.2472055E-1,7.3735826E-2,1.5129349E-1,-1.4339928E-1,7.8652453E-1,-1.4256139E-1,8.295072E-1,8.939067E-2,-1.4273785E-1,4.07304E-2,1.253118E-1,7.246489E-2,-1.4008854E-1,-1.08370915E-1,1.19917E0,4.0324375E-1,1.3034971E-1,-1.01975E0,1.7923781E-1,-7.021248E-1,1.045104E0,7.947893E-2,1.3597664E0,-1.468788E-1,8.2071024E-1,-9.9919215E-2,1.1428674E0,1.2526561E0,-1.003141E-1,-9.765454E-2,1.1472446E-1,-1.4030391E0,9.933103E-2,9.2070866E-1,-9.89557E-1,1.0515948E-1,-1.462082E-1,-1.0485666E-1,1.1580588E0,-1.2171828E-1,1.1114788E-1,4.6759106E-2,1.4371024E-1,4.0552908E-1,9.9889934E-1,3.8698336E-1,1.403146E-1,1.375243E0,8.7411E-1,-1.6326259E-1,4.2489897E-2,-1.1165011E-1,1.1861753E0,1.0880027E-1,-1.5657297E-1,6.570144E-1,1.5021127E0,-1.4400905E-1,5.241455E-1,-3.1171295E-1,1.0433447E0,-8.972334E-2,1.0835793E-1,1.488852E-1,5.7637323E-2,1.19973026E-1,-1.19810395E-1,2.330217E-2,1.4165355E-1,-1.3913058E-1,1.1624084E-1,1.6071764E-1,5.9995003E-2,6.0794752E-2,-1.4491908E-1,-1.4695345E-1,1.2424292E-1,4.9348474E-2,1.107378E-1],"categories":[],"categories_nodes":[],"categories_segments":[],"categories_sizes":[],"default_left":[0,0,0,0,0,0,0,0,0,0,0,0,0,0,0,0,0,0,0,0,0,0,0,0,0,0,0,0,0,0,0,0,0,0,0,0,0,0,0,0,0,0,0,0,0,0,0,0,0,0,0,0,0,0,0,0,0,0,0,0,0,0,0,0,0,0,0,0,0,0,0,0,0,0,0,0,0,0,0,0,0,0,0,0,0,0,0,0,0,0,0,0,0,0,0,0,0,0,0,0,0,0,0,0,0,0,0,0,0,0,0,0,0,0,0,0,0,0,0,0,0,0,0,0,0],"id":4,"left_children":[1,3,5,7,9,11,13,15,17,19,21,23,25,-1,27,29,31,33,-1,35,-1,37,39,-1,41,43,45,47,49,-1,51,-1,53,-1,55,57,59,-1,61,63,65,67,-1,-1,-1,-1,-1,-1,-1,-1,69,-1,71,-1,-1,-1,-1,-1,-1,-1,73,75,-1,77,79,81,83,85,87,-1,89,-1,91,93,-1,-1,-1,95,-1,97,99,-1,-1,-1,101,-1,-1,-1,-1,103,105,107,-1,109,111,-1,-1,-1,113,-1,-1,115,117,-1,119,121,123,-1,-1,-1,-1,-1,-1,-1,-1,-1,-1,-1,-1,-1,-1,-1,-1,-1,-1],"loss_changes":[3.2175186E2,1.5307556E2,8.214851E1,1.5137726E1,9.521513E1,7.053953E1,3.905359E1,1.8051117E1,3.419184E1,2.1626667E1,7.917586E1,4.4999023E1,4.0859238E1,0E0,3.4424133E1,2.3324684E1,5.209259E0,1.8155281E1,0E0,1.78945E1,0E0,5.580394E1,4.6392704E1,0E0,1.1692192E1,2.6089203E1,1.2857582E1,7.873535E-2,2.420575E1,0E0,2.5792343E1,0E0,1.4887142E1,0E0,1.1025276E0,9.6527E0,1.3246948E1,0E0,1.2568169E0,2.5187756E1,2.317775E1,7.1495056E0,0E0,0E0,0E0,0E0,0E0,0E0,0E0,0E0,2.3514908E1,0E0,9.403627E0,0E0,0E0,0E0,0E0,0E0,0E0,0E0,9.562813E0,6.0229826E0,0E0,3.0736435E1,2.9521057E1,1.4021921E1,1.2066605E1,9.509545E0,1.8624496E0,0E0,2.0729752E1,0E0,1.9702911E0,2.0131989E0,0E0,0E0,0E0,1.42747E1,0E0,1.2528351E1,1.7619263E1,0E0,0E0,0E0,6.6007156E0,0E0,0E0,0E0,0E0,1.9904514E1,1.1929153E1,5.1346197E0,0E0,3.73378E0,1.4725704E1,0E0,0E0,0E0,3.8007698E0,0E0,0E0,2.2007557E1,1.4355621E0,0E0,1.4594139E1,1.4968521E1,6.245514E0,0E0,0E0,0E0,0E0,0E0,0E0,0E0,0E0,0E0,0E0,0E0,0E0,0E0,0E0,0E0,0E0,0E0,0E0],"parents":[2147483647,0,0,1,1,2,2,3,3,4,4,5,5,6,6,7,7,8,8,9,9,10,10,11,11,12,12,14,14,15,15,16,16,17,17,19,19,21,21,22,22,24,24,25,25,26,26,27,27,28,28,30,30,32,32,34,34,35,35,36,36,38,38,39,39,40,40,41,41,50,50,52,52,60,60,61,61,63,63,64,64,65,65,66,66,67,67,68,68,70,70,72,72,73,73,77,77,79,79,80,80,84,84,89,89,90,90,91,91,93,93,94,94,98,98,101,101,102,102,104,104,105,105,106,106],"right_children":[2,4,6,8,10,12,14,16,18,20,22,24,26,-1,28,30,32,34,-1,36,-1,38,40,-1,42,44,46,48,50,-1,52,-1,54,-1,56,58,60,-1,62,64,66,68,-1,-1,-1,-1,-1,-1,-1,-1,70,-1,72,-1,-1,-1,-1,-1,-1,-1,74,76,-1,78,80,82,84,86,88,-1,90,-1,92,94,-1,-1,-1,96,-1,98,100,-1,-1,-1,102,-1,-1,-1,-1,104,106,108,-1,110,112,-1,-1,-1,114,-1,-1,116,118,-1,120,122,124,-1,-1,-1,-1,-1,-1,-1,-1,-1,-1,-1,-1,-1,-1,-1,-1,-1,-1],"split_conditions":[1.3375E1,3.2352942E-1,4.38E-1,1.2545455E1,1E0,2E0,5.31E-1,1E0,1.2757576E1,5.3807104E-1,2.7233334E1,3.5714285E0,3.7E1,-1.6666737E-1,1E0,3.4E1,8.73E-1,3.4E1,-1.580556E-1,5.89E-1,-1.4058879E-1,2.516129E0,8.75E-1,-1.4543279E-1,4.32E-1,7.4E1,2E1,4.45E-1,1.1E1,-1.538819E-1,9.911765E0,-1.5936573E-1,8.75E-1,-1.2761992E-1,3.7400532E-1,3E1,4.06E-1,-1.6067462E-1,8.3E1,5.7E-1,5.050505E-2,1.4057143E1,-1.1354331E-1,-1.6451134E-1,1.1464291E-1,-1.1261076E-1,1.2472055E-1,7.3735826E-2,1.5129349E-1,-1.4339928E-1,3.3E1,-1.4256139E-1,1.6E1,8.939067E-2,-1.4273785E-1,4.07304E-2,1.253118E-1,7.246489E-2,-1.4008854E-1,-1.08370915E-1,7.2E1,4.5E1,1.3034971E-1,8.8125E0,3.7E1,4.93E-1,4.07E-1,8.4E1,2.1E1,-1.468788E-1,3.1382353E1,-9.9919215E-2,4.3986255E-1,6.7E1,-1.003141E-1,-9.765454E-2,1.1472446E-1,3.8E1,9.933103E-2,4.51E-1,3.3333334E-1,1.0515948E-1,-1.462082E-1,-1.0485666E-1,5.8E1,-1.2171828E-1,1.1114788E-1,4.6759106E-2,1.4371024E-1,2.9E1,4.43E-1,5.3E1,1.403146E-1,6.3E1,6.55E-1,-1.6326259E-1,4.2489897E-2,-1.1165011E-1,4.375E-1,1.0880027E-1,-1.5657297E-1,6.366667E0,7.1E1,-1.4400905E-1,5.890411E-1,5.4340833E-1,1.425E1,-8.972334E-2,1.0835793E-1,1.488852E-1,5.7637323E-2,1.19973026E-1,-1.19810395E-1,2.330217E-2,1.4165355E-1,-1.3913058E-1,1.1624084E-1,1.6071764E-1,5.9995003E-2,6.0794752E-2,-1.4491908E-1,-1.4695345E-1,1.2424292E-1,4.9348474E-2,1.107378E-1],"split_indices":[14,17,6,14,13,13,10,13,14,20,19,16,0,0,13,0,9,0,0,9,0,17,17,0,6,2,2,6,2,0,14,0,9,0,20,0,6,0,2,10,20,14,0,0,0,0,0,0,0,0,5,0,2,0,0,0,0,0,0,0,5,5,0,16,2,9,6,5,2,0,19,0,20,2,0,0,0,0,0,6,17,0,0,0,5,0,0,0,0,0,6,2,0,5,9,0,0,0,17,0,0,16,5,0,21,20,14,0,0,0,0,0,0,0,0,0,0,0,0,0,0,0,0,0,0],"split_type":[0,0,0,0,0,0,0,0,0,0,0,0,0,0,0,0,0,0,0,0,0,0,0,0,0,0,0,0,0,0,0,0,0,0,0,0,0,0,0,0,0,0,0,0,0,0,0,0,0,0,0,0,0,0,0,0,0,0,0,0,0,0,0,0,0,0,0,0,0,0,0,0,0,0,0,0,0,0,0,0,0,0,0,0,0,0,0,0,0,0,0,0,0,0,0,0,0,0,0,0,0,0,0,0,0,0,0,0,0,0,0,0,0,0,0,0,0,0,0,0,0,0,0,0,0],"sum_hessian":[9.3720654E2,4.585219E2,4.7868463E2,1.8587003E2,2.7265192E2,1.0052259E2,3.7816202E2,1.5568127E2,3.018874E1,8.1401855E1,1.9125005E2,4.9631245E1,5.0891346E1,5.072845E0,3.7308917E2,3.6656445E1,1.1902483E2,1.5542368E1,1.4646372E1,7.825611E1,3.1457415E0,6.895133E1,1.2229872E2,7.315136E0,4.231611E1,4.011544E1,1.0775906E1,8.0618256E1,2.9247092E2,1.6414583E1,2.0241863E1,1.0751612E2,1.1508716E1,3.5176551E0,1.20247135E1,6.845258E0,7.141086E1,6.013816E1,8.813169E0,6.9042274E1,5.3256443E1,4.0827717E1,1.4883937E0,3.7141644E1,2.973796E0,2.1388032E0,8.637102E0,2.9869964E0,7.7631256E1,4.111788E0,2.8835913E2,6.8246117E0,1.3417251E1,3.1270905E0,8.381625E0,3.382043E0,8.642671E0,2.9587712E0,3.886487E0,1.8953506E0,6.95155E1,3.7757823E0,5.0373864E0,3.702928E1,3.2012997E1,8.367389E0,4.4889053E1,5.095463E0,3.5732254E1,3.679045E0,2.8468008E2,1.6426251E0,1.1774626E1,6.8288246E1,1.2272627E0,1.2132276E0,2.5625546E0,3.1361118E1,5.668163E0,1.9717001E1,1.2295995E1,2.4136832E0,5.953706E0,1.8738207E0,4.3015232E1,2.1786482E0,2.9168146E0,3.4123588E0,3.2319897E1,8.647317E1,1.9820692E2,3.652904E0,8.121721E0,4.959472E1,1.8693525E1,2.7956648E1,3.4044704E0,1.9035116E0,1.781349E1,2.4768076E0,9.819187E0,1.8696796E1,2.4318436E1,4.54918E0,8.192398E1,6.303872E0,1.9190306E2,1.1833328E0,2.4695714E0,4.266372E1,6.9310007E0,1.651885E1,2.1746736E0,3.8587635E0,1.3954725E1,3.3532867E0,1.534351E1,2.108183E1,3.2366078E0,7.925037E1,2.6736207E0,3.643751E0,2.660121E0,2.0924984E1,1.7097807E2],"tree_param":{"num_deleted":"0","num_feature":"22","num_nodes":"125","size_leaf_vector":"1"}},{"base_weights":[5.6697603E-2,-5.9642464E-1,5.266983E-1,3.3911347E-1,-1.0115219E0,-4.5172986E-1,7.0043814E-1,-8.083537E-1,6.69089E-1,-1.2303468E0,3.746472E-1,-1.4686064E-1,-8.206231E-2,1.2677284E0,5.327025E-1,-1.4427052E-1,9.2698383E-1,7.260943E-1,-1.1588284E-1,-1.4133028E0,-7.292566E-1,-8.478425E-1,9.7651076E-1,-1.0387888E0,2.8833252E-1,6.6174674E-1,1.3196975E0,1.5617372E-1,8.664475E-1,-9.560909E-2,1.5028153E-1,-7.995367E-2,8.899667E-1,-1.4609786E0,1.2384354E-1,-1.2015969E0,5.00707E-1,-1.4406265E-1,7.743406E-2,-1.0079042E-1,1.158663E0,-1.471304E-1,4.2857993E-1,-1.4524008E-1,4.693151E-1,1.10930264E-1,-1.1534869E-1,1.3369148E0,5.54562E-2,-2.468652E-1,8.399267E-1,5.253225E-1,1.0513947E0,5.4602325E-1,-1.4394717E-1,-8.953645E-2,9.308159E-1,-1.5100251E-1,-4.3802902E-1,-1.07963495E-1,1.1812222E-1,-1.5277681E-1,-1.1812837E-1,-4.4074494E-1,1.4361817E-1,-8.849018E-2,1.3079904E0,-8.25533E-2,1.0793121E-1,8.6666936E-1,-2.2514504E-1,9.6518713E-1,1.3974169E-1,-1.5757652E-1,3.270946E-2,-5.640572E-1,1.0792103E0,-1.4575766E-1,6.1580163E-1,5.908026E-1,1.2110324E0,9.368784E-1,-1.10973515E-1,3.6032608E-1,1.06215E0,9.860545E-2,-1.2680839E-1,-1.3534723E-1,9.6270025E-2,1.5147008E-1,-1.4176705E-1,6.1275657E-2,1.393484E-1,-5.6709355E-1,1.3167282E0,-1.484979E-1,9.4336337E-1,1.1936274E0,-1.0451905E-1,-7.305836E-1,4.8427072E-1,-1.4313522E-1,1.2256612E-1,-1.1499391E-1,1.1628236E0,-1.971044E-1,8.809328E-1,-7.6211356E-2,1.0298969E0,1.3026061E0,9.165082E-1,1.2208561E-1,3.4255692E-1,8.4788543E-1,-1.2829359E-1,1.6046423E-1,9.4409335E-1,-1.529641E-1,9.741058E-2,1.4891306E-1,3.891115E-2,1.1982206E-1,3.331564E-2,1.4602122E-1,2.6081583E-1,3.495795E-1,-1.4086231E0,-9.0976256E-1,8.2202905E-1,-9.4370976E-2,1.2331116E0,-1.5811448E-1,5.4798764E-1,9.6237576E-1,-1.3231312E-1,6.200517E-1,-1.689642E-1,-1.2284571E-1,1.2474414E0,1.054562E0,1.4053021E-1,-1.0800345E-1,1.0931557E0,-9.2503235E-2,1.05504386E-1,-9.015763E-2,1.11647986E-1,-1.1745286E-1,1.0819768E-1,9.790853E-2,-9.260308E-2,-1.2007443E-1,8.6873956E-2,4.8032537E-2,-1.8122403E-1,6.0709078E-2,-1.5501523E-1,9.247824E-2,-1.3273768E-1,1.2885329E-1,3.5778847E-2,-1.2496563E-1,1.07976E-1,1.3912725E-1,5.7691105E-2,-1.2907504E-1,1.2146597E-1,1.3879465E-1,3.957981E-2,1.3555059E-2,1.216374E-1,1.292099E-2,1.2634493E-1],"categories":[],"categories_nodes":[],"categories_segments":[],"categories_sizes":[],"default_left":[0,0,0,0,0,0,0,0,0,0,0,0,0,0,0,0,0,0,0,0,0,0,0,0,0,0,0,0,0,0,0,0,0,0,0,0,0,0,0,0,0,0,0,0,0,0,0,0,0,0,0,0,0,0,0,0,0,0,0,0,0,0,0,0,0,0,0,0,0,0,0,0,0,0,0,0,0,0,0,0,0,0,0,0,0,0,0,0,0,0,0,0,0,0,0,0,0,0,0,0,0,0,0,0,0,0,0,0,0,0,0,0,0,0,0,0,0,0,0,0,0,0,0,0,0,0,0,0,0,0,0,0,0,0,0,0,0,0,0,0,0,0,0,0,0,0,0,0,0,0,0,0,0,0,0,0,0,0,0,0,0,0,0,0,0,0,0,0,0,0,0,0,0],"id":5,"left_children":[1,3,5,7,9,11,13,15,17,19,21,-1,23,25,27,-1,29,31,-1,33,35,37,39,41,43,45,47,49,51,-1,-1,53,55,57,59,61,63,-1,-1,-1,65,-1,67,-1,69,-1,-1,71,-1,73,75,77,79,81,-1,-1,83,-1,85,-1,-1,-1,87,89,-1,-1,91,-1,-1,93,95,97,-1,-1,99,101,103,-1,105,107,109,111,-1,113,115,-1,-1,-1,-1,-1,-1,-1,-1,117,119,-1,121,123,-1,125,127,-1,-1,-1,129,131,133,135,137,139,141,-1,143,145,-1,-1,147,-1,-1,-1,-1,-1,-1,-1,149,151,153,155,157,-1,159,-1,161,163,-1,165,-1,-1,167,169,-1,-1,171,-1,-1,-1,-1,-1,-1,-1,-1,-1,-1,-1,-1,-1,-1,-1,-1,-1,-1,-1,-1,-1,-1,-1,-1,-1,-1,-1,-1,-1,-1],"loss_changes":[2.7658948E2,1.4678723E2,8.937688E1,4.4707256E1,7.976846E1,2.9805511E1,4.1697098E1,3.0514284E1,1.0338417E1,1.9692474E1,2.7620123E1,0E0,2.1364676E1,2.304062E0,4.3269913E1,0E0,9.790543E0,1.1827019E1,0E0,1.2237732E1,3.6925743E1,1.318207E1,1.0155798E1,1.1297937E1,1.4428991E1,9.383468E0,4.6949768E-1,4.5269962E1,1.0985962E1,0E0,0E0,1.43636465E1,6.23349E0,7.3484497E0,8.746416E0,1.5888306E1,1.6533674E1,0E0,0E0,0E0,8.249386E0,0E0,4.6457E0,0E0,1.131101E1,0E0,0E0,6.5708923E-1,0E0,3.8560646E1,2.1057621E1,1.279151E1,7.930771E0,8.5787325E0,0E0,0E0,5.077732E0,0E0,1.1549653E1,0E0,0E0,0E0,1.6797714E1,2.0799152E1,0E0,0E0,4.5739746E-1,0E0,0E0,1.7413246E1,2.4151499E1,8.465715E0,0E0,0E0,3.0207596E1,1.6531616E1,1.1094238E1,0E0,1.3989828E1,9.514794E0,1.1356812E0,1.263936E0,0E0,1.3226961E1,2.2462692E0,0E0,0E0,0E0,0E0,0E0,0E0,0E0,0E0,1.1680893E1,2.6124458E0,0E0,9.4278955E-1,3.244894E0,0E0,2.4363533E1,2.6654476E1,0E0,0E0,0E0,8.708061E0,1.7967356E1,9.983215E0,1.646153E1,1.1111519E1,1.3589478E-1,9.59548E0,0E0,5.141757E0,6.7800617E0,0E0,0E0,1.6069984E1,0E0,0E0,0E0,0E0,0E0,0E0,0E0,4.707141E0,1.1804652E1,1.6288528E1,1.1826062E1,1.1125462E1,0E0,1.9520264E0,0E0,1.2363947E1,7.0289993E0,0E0,1.3289045E1,0E0,0E0,1.6381283E0,3.1963806E0,0E0,0E0,3.5165825E0,0E0,0E0,0E0,0E0,0E0,0E0,0E0,0E0,0E0,0E0,0E0,0E0,0E0,0E0,0E0,0E0,0E0,0E0,0E0,0E0,0E0,0E0,0E0,0E0,0E0,0E0,0E0,0E0,0E0,0E0],"parents":[2147483647,0,0,1,1,2,2,3,3,4,4,5,5,6,6,7,7,8,8,9,9,10,10,12,12,13,13,14,14,16,16,17,17,19,19,20,20,21,21,22,22,23,23,24,24,25,25,26,26,27,27,28,28,31,31,32,32,33,33,34,34,35,35,36,36,40,40,42,42,44,44,47,47,49,49,50,50,51,51,52,52,53,53,56,56,58,58,62,62,63,63,66,66,69,69,70,70,71,71,74,74,75,75,76,76,78,78,79,79,80,80,81,81,83,83,84,84,93,93,94,94,96,96,97,97,99,99,100,100,104,104,105,105,106,106,107,107,108,108,109,109,110,110,112,112,113,113,116,116,124,124,125,125,126,126,127,127,128,128,130,130,132,132,133,133,135,135,138,138,139,139,142,142],"right_children":[2,4,6,8,10,12,14,16,18,20,22,-1,24,26,28,-1,30,32,-1,34,36,38,40,42,44,46,48,50,52,-1,-1,54,56,58,60,62,64,-1,-1,-1,66,-1,68,-1,70,-1,-1,72,-1,74,76,78,80,82,-1,-1,84,-1,86,-1,-1,-1,88,90,-1,-1,92,-1,-1,94,96,98,-1,-1,100,102,104,-1,106,108,110,112,-1,114,116,-1,-1,-1,-1,-1,-1,-1,-1,118,120,-1,122,124,-1,126,128,-1,-1,-1,130,132,134,136,138,140,142,-1,144,146,-1,-1,148,-1,-1,-1,-1,-1,-1,-1,150,152,154,156,158,-1,160,-1,162,164,-1,166,-1,-1,168,170,-1,-1,172,-1,-1,-1,-1,-1,-1,-1,-1,-1,-1,-1,-1,-1,-1,-1,-1,-1,-1,-1,-1,-1,-1,-1,-1,-1,-1,-1,-1,-1,-1],"split_conditions":[1.2454545E1,1E0,1.5625E-1,3.4411764E0,1.72E2,8.6E1,1E0,5.31E-1,1.2E1,1.25E2,1.0967742E0,-1.4686064E-1,4.71E-1,4.48E-1,1.58E1,-1.4427052E-1,3.81E-1,9E0,-1.1588284E-1,5.6875E0,2.5E0,5.1E1,9.545455E0,1.3513513E-1,1.7428571E0,2.09375E0,5.817308E-1,4.01E-1,3.59E-1,-9.560909E-2,1.5028153E-1,2.43E-1,4.2E-1,6.2E-1,1.18E1,4E1,3.88E-1,-1.4406265E-1,7.743406E-2,-1.0079042E-1,1.8E1,-1.471304E-1,1.15E2,-1.4524008E-1,4.0554592E-1,1.10930264E-1,-1.1534869E-1,1.06E2,5.54562E-2,4.3125E0,1.07E2,1.7E1,1.945946E0,2.1E1,-1.4394717E-1,-8.953645E-2,2E1,-1.5100251E-1,6.22E-1,-1.07963495E-1,1.1812222E-1,-1.5277681E-1,5.77E-1,2.728125E1,1.4361817E-1,-8.849018E-2,4.97E-1,-8.25533E-2,1.0793121E-1,3.4870318E-1,1.38E2,3.1818182E1,1.3974169E-1,-1.5757652E-1,3.0973684E1,3.7666667E0,7.633588E-3,-1.4575766E-1,5.5E0,5.41E-1,4.7666666E-1,5.833333E-1,-1.10973515E-1,8.181818E-1,3.5405405E0,9.860545E-2,-1.2680839E-1,-1.3534723E-1,9.6270025E-2,1.5147008E-1,-1.4176705E-1,6.1275657E-2,1.393484E-1,1.77E2,5.26E-1,-1.484979E-1,3.3E1,3.5405405E0,-1.0451905E-1,1.3E1,5.09E-1,-1.4313522E-1,1.2256612E-1,-1.1499391E-1,1.0967742E0,3.4555557E1,3.62E1,5.151515E-1,1.69375E1,4.2857143E-1,3.72E-1,1.2208561E-1,1.8108108E0,7.633588E-3,-1.2829359E-1,1.6046423E-1,1.764706E-1,-1.529641E-1,9.741058E-2,1.4891306E-1,3.891115E-2,1.1982206E-1,3.331564E-2,1.4602122E-1,7.741935E-1,1.2571428E1,9E0,2.4343675E-1,2.07E2,-9.4370976E-2,5.95E-1,-1.5811448E-1,2.777778E-1,6.0714287E-1,-1.3231312E-1,3.88E-1,-1.689642E-1,-1.2284571E-1,3.2142857E1,3.7E-1,1.4053021E-1,-1.0800345E-1,3.7E1,-9.2503235E-2,1.05504386E-1,-9.015763E-2,1.11647986E-1,-1.1745286E-1,1.0819768E-1,9.790853E-2,-9.260308E-2,-1.2007443E-1,8.6873956E-2,4.8032537E-2,-1.8122403E-1,6.0709078E-2,-1.5501523E-1,9.247824E-2,-1.3273768E-1,1.2885329E-1,3.5778847E-2,-1.2496563E-1,1.07976E-1,1.3912725E-1,5.7691105E-2,-1.2907504E-1,1.2146597E-1,1.3879465E-1,3.957981E-2,1.3555059E-2,1.216374E-1,1.292099E-2,1.2634493E-1],"split_indices":[14,13,17,16,3,3,13,7,14,3,17,0,7,7,14,0,8,14,0,15,15,4,14,17,15,15,21,8,8,0,0,8,7,7,14,4,8,0,0,0,4,0,3,0,20,0,0,3,0,16,3,4,15,4,0,0,4,0,7,0,0,0,7,19,0,0,7,0,0,20,3,19,0,0,19,15,20,0,16,7,20,17,0,15,16,0,0,0,0,0,0,0,0,3,7,0,4,16,0,14,7,0,0,0,15,19,19,17,14,17,8,0,17,20,0,0,17,0,0,0,0,0,0,0,15,14,4,21,3,0,7,0,17,17,0,8,0,0,19,8,0,0,4,0,0,0,0,0,0,0,0,0,0,0,0,0,0,0,0,0,0,0,0,0,0,0,0,0,0,0,0,0,0],"split_type":[0,0,0,0,0,0,0,0,0,0,0,0,0,0,0,0,0,0,0,0,0,0,0,0,0,0,0,0,0,0,0,0,0,0,0,0,0,0,0,0,0,0,0,0,0,0,0,0,0,0,0,0,0,0,0,0,0,0,0,0,0,0,0,0,0,0,0,0,0,0,0,0,0,0,0,0,0,0,0,0,0,0,0,0,0,0,0,0,0,0,0,0,0,0,0,0,0,0,0,0,0,0,0,0,0,0,0,0,0,0,0,0,0,0,0,0,0,0,0,0,0,0,0,0,0,0,0,0,0,0,0,0,0,0,0,0,0,0,0,0,0,0,0,0,0,0,0,0,0,0,0,0,0,0,0,0,0,0,0,0,0,0,0,0,0,0,0,0,0,0,0,0,0],"sum_hessian":[8.9901373E2,3.7610367E2,5.2291003E2,1.1564602E2,2.6045764E2,7.861034E1,4.442997E2,2.5504866E1,9.014115E1,2.2504393E2,3.541372E1,2.0165787E1,5.844455E1,9.989429E1,3.4440543E2,1.8800858E1,6.704008E0,8.799958E1,2.1415732E0,1.6351982E2,6.152412E1,1.1548338E1,2.386538E1,1.58080225E1,4.2636524E1,8.975033E0,9.091926E1,1.6251973E2,1.818857E2,1.4153118E0,5.2886963E0,1.4954444E1,7.3045135E1,1.5864874E2,4.87107E0,4.4469612E1,1.7054508E1,8.539664E0,3.008674E0,1.6253275E0,2.2240053E1,1.22072E1,3.6008227E0,3.3538003E0,3.9282726E1,7.5118403E0,1.4631929E0,8.818755E1,2.7317028E0,1.0265097E2,5.9868763E1,6.529431E1,1.1659139E2,1.0649401E1,4.305043E0,1.1659963E0,7.1879135E1,1.5093584E2,7.712916E0,2.2683032E0,2.602767E0,3.3864773E1,1.0604841E1,8.763683E0,8.290825E0,1.1790258E0,2.1061028E1,1.1383446E0,2.462478E0,2.4828466E1,1.4454258E1,1.471721E1,7.3470345E1,1.7036278E1,8.561469E1,8.520122E0,5.134864E1,2.1899889E0,6.310432E1,3.1218796E1,8.53726E1,8.966868E0,1.6825321E0,1.4151477E1,5.772766E1,2.7709675E0,4.9419484E0,4.830975E0,5.773866E0,2.7362466E0,6.0274367E0,3.2006445E0,1.7860382E1,5.8695774E0,1.8958889E1,6.8250065E0,7.6292515E0,1.3580336E1,1.1368735E0,3.15933E1,5.4021393E1,5.873883E0,2.646239E0,1.3953434E0,4.9953297E1,1.55829E1,4.752142E1,1.2721067E1,1.8497728E1,6.2513203E1,2.285939E1,5.3542895E0,3.6125786E0,1.1286709E1,2.864768E0,8.066855E0,4.9660805E1,3.6176772E0,2.2519002E0,1.547707E1,3.48182E0,4.7018576E0,2.927394E0,1.012217E1,3.4581654E0,1.2370568E1,1.9222733E1,1.0205715E1,4.3815678E1,1.211722E0,4.8741577E1,5.0605783E0,1.0522322E1,4.6371304E1,1.1501162E0,9.31636E0,3.4047067E0,1.2169993E0,1.7280727E1,2.1603226E1,4.0909977E1,1.4424273E0,2.1416964E1,1.192565E0,2.4200137E0,1.1885523E0,1.0098157E1,2.5751123E0,4.7085693E1,2.2634177E0,1.1947477E0,2.7739866E0,9.596581E0,3.3507957E0,1.5871936E1,3.0450602E0,7.1606555E0,4.236037E1,1.455307E0,4.53953E1,3.3462727E0,2.0939133E0,8.428409E0,2.0714012E1,2.5657291E1,1.9331925E0,7.3831677E0,1.4292934E1,2.9877934E0,3.5093822E0,1.8093843E1,3.479577E0,1.7937386E1],"tree_param":{"num_deleted":"0","num_feature":"22","num_nodes":"173","size_leaf_vector":"1"}},{"base_weights":[4.2011976E-2,-5.8319044E-1,4.7039682E-1,2.2942308E-1,-9.025908E-1,-3.7556243E-1,6.760011E-1,-1.0252666E0,4.9213055E-1,-1.1130855E0,6.8635553E-1,-1.4403354E-1,7.3037736E-2,1.1046009E0,2.9643968E-1,-1.433184E-1,5.272714E-2,-1.3324231E-1,6.52366E-1,-1.3931538E0,-6.3960195E-1,1.0733024E0,-1.2536468E-1,-4.5835862E-1,6.2494314E-1,-9.6581355E-2,1.1221884E0,-8.496351E-1,5.3644335E-1,-3.2695842E-1,8.934873E-1,-1.4579295E-1,-9.154247E-1,-1.0499523E0,3.4794754E-1,-9.744967E-2,1.2670852E0,-1.5010683E-1,2.1203882E-1,-1.366106E-1,8.711658E-1,-9.033208E-2,1.139479E0,-1.6285674E-1,4.1399053E-1,-3.2119858E-1,8.1664544E-1,-1.310566E-1,5.9978384E-1,1.0234381E0,-1.3040057E-1,1.2561679E-1,-1.3857661E-1,-1.2926748E0,5.118533E-1,1.0218436E0,-6.6886246E-1,6.327085E-1,1.4444534E-1,-1.2504068E-1,5.643521E-1,1.0097778E0,-1.0660721E-1,3.818209E-1,1.183331E0,8.9309937E-1,-1.377147E-1,1.1754544E-1,-1.2308496E0,-1.6293687E-1,9.173892E-1,-1.05106376E-1,1.1829571E-1,-7.882053E-2,1.0716383E0,-1.4384755E-1,-1.8324211E-1,-9.846851E-2,1.0876322E-1,-9.384578E-2,1.3585355E0,1.11180365E-1,-1.3476138E-1,1.17407635E-1,-9.172221E-2,9.546532E-1,-1.40604E-1,1.1675767E0,-7.0996326E-4,-1.3859327E-1,1.1663344E-1,7.022843E-1,1.2166805E0,-9.909537E-2,1.256253E-1,4.3982103E-1,-1.4176175E-1,1.7836726E-1,-1.7875545E-1,-1.1282422E-1,9.621036E-1,1.5053159E-1,1.1257609E0,-1.2210125E-1,1.0495112E-1,1.4733878E-1,6.507564E-2,2.0078893E-1,1.1816608E-1,1.2262106E0,5.2053906E-2,-1.1053347E-1,9.736938E-2,-1.0995164E-1,1.0363367E0,3.972769E-2,1.2303603E0,-1.3839146E-1,8.330938E-1,1.100498E-1,-1.1228049E-1,-1.0745446E-1,9.9375945E-1,-1.0433411E-1,9.354475E-2,1.2259207E-1,5.8069177E-2,-1.0373811E-1,1.084337E-1,1.2920918E-1,5.1229782E-2,1.335431E-1,2.2181844E-2,1.12521306E-1,1.3599913E-1,1.12308994E-1,-1.6272511E-2,2.0519596E-2,1.092448E-1],"categories":[],"categories_nodes":[],"categories_segments":[],"categories_sizes":[],"default_left":[0,0,0,0,0,0,0,0,0,0,0,0,0,0,0,0,0,0,0,0,0,0,0,0,0,0,0,0,0,0,0,0,0,0,0,0,0,0,0,0,0,0,0,0,0,0,0,0,0,0,0,0,0,0,0,0,0,0,0,0,0,0,0,0,0,0,0,0,0,0,0,0,0,0,0,0,0,0,0,0,0,0,0,0,0,0,0,0,0,0,0,0,0,0,0,0,0,0,0,0,0,0,0,0,0,0,0,0,0,0,0,0,0,0,0,0,0,0,0,0,0,0,0,0,0,0,0,0,0,0,0,0,0,0,0,0,0,0,0],"id":6,"left_children":[1,3,5,7,9,11,13,15,17,19,21,-1,23,25,27,-1,-1,-1,29,31,33,35,-1,37,39,-1,41,43,45,47,49,-1,51,53,55,-1,57,-1,59,-1,61,-1,63,-1,65,67,69,-1,71,73,-1,-1,-1,75,77,79,81,83,-1,-1,85,87,-1,89,91,93,-1,95,97,-1,99,-1,-1,-1,101,-1,103,-1,-1,-1,105,-1,-1,-1,-1,107,-1,109,111,-1,-1,113,115,-1,-1,117,-1,119,-1,-1,121,123,125,-1,-1,-1,-1,127,-1,129,-1,-1,-1,-1,131,-1,133,-1,135,-1,-1,-1,137,-1,-1,-1,-1,-1,-1,-1,-1,-1,-1,-1,-1,-1,-1,-1,-1],"loss_changes":[2.2943155E2,9.061755E1,8.866028E1,3.3163414E1,8.446559E1,4.7881813E1,6.625032E1,1.182482E1,2.50189E1,2.8463318E1,2.3785477E1,0E0,2.120479E1,8.06955E0,6.053253E1,0E0,0E0,0E0,1.8381496E1,2.9432678E0,3.445477E1,1.1338331E1,0E0,2.612279E1,1.8549858E1,0E0,7.707794E0,3.8279213E1,4.380845E1,1.5249589E1,1.896505E1,0E0,2.1344843E1,2.3284187E1,1.8118813E1,0E0,1.75214E0,0E0,1.2733906E1,0E0,9.702608E0,0E0,5.8448944E0,0E0,1.4417192E1,1.8240429E1,3.522113E1,0E0,9.768979E0,5.983719E0,0E0,0E0,0E0,8.13694E0,8.604861E0,1.1636122E1,1.4486651E1,6.914166E0,0E0,0E0,1.63401E1,4.863001E0,0E0,1.8043823E1,2.011963E0,9.955209E0,0E0,1.620829E1,1.1961336E1,0E0,1.3167709E1,0E0,0E0,0E0,2.7095566E0,0E0,1.0464717E1,0E0,0E0,0E0,1.6346169E-1,0E0,0E0,0E0,0E0,2.6502857E0,0E0,3.6232376E-1,6.585014E0,0E0,0E0,9.5353985E0,1.3688507E0,0E0,0E0,2.037336E1,0E0,7.36894E0,0E0,0E0,9.436584E0,5.0610895E0,2.2575455E0,0E0,0E0,0E0,0E0,6.7148304E0,0E0,4.4078445E-1,0E0,0E0,0E0,0E0,2.6959524E0,0E0,6.850281E-1,0E0,6.7291355E0,0E0,0E0,0E0,9.763351E0,0E0,0E0,0E0,0E0,0E0,0E0,0E0,0E0,0E0,0E0,0E0,0E0,0E0,0E0,0E0,0E0],"parents":[2147483647,0,0,1,1,2,2,3,3,4,4,5,5,6,6,7,7,8,8,9,9,10,10,12,12,13,13,14,14,18,18,19,19,20,20,21,21,23,23,24,24,26,26,27,27,28,28,29,29,30,30,32,32,33,33,34,34,36,36,38,38,40,40,42,42,44,44,45,45,46,46,48,48,49,49,53,53,54,54,55,55,56,56,57,57,60,60,61,61,63,63,64,64,65,65,67,67,68,68,70,70,74,74,76,76,80,80,85,85,87,87,88,88,91,91,92,92,95,95,97,97,100,100,101,101,102,102,107,107,109,109,114,114,116,116,118,118,122,122],"right_children":[2,4,6,8,10,12,14,16,18,20,22,-1,24,26,28,-1,-1,-1,30,32,34,36,-1,38,40,-1,42,44,46,48,50,-1,52,54,56,-1,58,-1,60,-1,62,-1,64,-1,66,68,70,-1,72,74,-1,-1,-1,76,78,80,82,84,-1,-1,86,88,-1,90,92,94,-1,96,98,-1,100,-1,-1,-1,102,-1,104,-1,-1,-1,106,-1,-1,-1,-1,108,-1,110,112,-1,-1,114,116,-1,-1,118,-1,120,-1,-1,122,124,126,-1,-1,-1,-1,128,-1,130,-1,-1,-1,-1,132,-1,134,-1,136,-1,-1,-1,138,-1,-1,-1,-1,-1,-1,-1,-1,-1,-1,-1,-1,-1,-1,-1,-1],"split_conditions":[1.2454545E1,1E0,1.891892E-1,9E0,1.65625E0,1.7E1,2E0,8.19E-1,4.7E-1,3.75E-1,4.3617022E-1,-1.4403354E-1,7.7E1,1.880734E-1,5.1E-1,-1.433184E-1,5.272714E-2,-1.3324231E-1,1.9444445E-1,3.84375E0,6.1E1,1.9E1,-1.2536468E-1,2.7E1,1.4314285E1,-9.6581355E-2,4.45E-1,4.7E1,2.7E1,8.27E-1,4.6938777E-1,-1.4579295E-1,3.9230769E0,8.93E-1,6.7E1,-9.744967E-2,5.2E1,-1.5010683E-1,4.35E-1,-1.366106E-1,9.7E1,-9.033208E-2,1.7E1,-1.6285674E-1,3.7E1,1.4972973E1,1.3225807E0,-1.310566E-1,3.77E-1,1.3E1,-1.3040057E-1,1.2561679E-1,-1.3857661E-1,1.2171429E1,4.51E-1,4.49E-1,4.51E-1,2E0,1.4444534E-1,-1.2504068E-1,4.72E-1,4.0082645E-1,-1.0660721E-1,3.65E-1,2.4324325E-1,2.777778E-1,-1.377147E-1,2.025641E0,6.7E-1,-1.6293687E-1,2.0197044E-1,-1.05106376E-1,1.1829571E-1,-7.882053E-2,7.1428573E-1,-1.4384755E-1,4.46E-1,-9.846851E-2,1.0876322E-1,-9.384578E-2,5.02E-1,1.11180365E-1,-1.3476138E-1,1.17407635E-1,-9.172221E-2,3.77E-1,-1.40604E-1,4.909091E0,4.54E-1,-1.3859327E-1,1.1663344E-1,3.5E1,1.2E1,-9.909537E-2,1.256253E-1,1.037037E0,-1.4176175E-1,5.06E-1,-1.7875545E-1,-1.1282422E-1,1.3E1,6.46E-1,6.1E1,-1.2210125E-1,1.0495112E-1,1.4733878E-1,6.507564E-2,1.6457144E1,1.1816608E-1,2.9E1,5.2053906E-2,-1.1053347E-1,9.736938E-2,-1.0995164E-1,1.3458333E1,3.972769E-2,7.74E-1,-1.3839146E-1,3.802817E-1,1.100498E-1,-1.1228049E-1,-1.0745446E-1,6.92E-1,-1.0433411E-1,9.354475E-2,1.2259207E-1,5.8069177E-2,-1.0373811E-1,1.084337E-1,1.2920918E-1,5.1229782E-2,1.335431E-1,2.2181844E-2,1.12521306E-1,1.3599913E-1,1.12308994E-1,-1.6272511E-2,2.0519596E-2,1.092448E-1],"split_indices":[14,13,17,14,17,2,13,9,11,8,21,0,5,21,11,0,0,0,17,15,5,4,0,2,14,0,11,4,4,9,21,0,15,9,5,0,5,0,6,0,5,0,4,0,2,14,15,0,8,2,0,0,0,14,6,6,11,13,0,0,6,21,0,8,17,17,0,15,9,0,21,0,0,0,15,0,8,0,0,0,6,0,0,0,0,8,0,15,6,0,0,4,2,0,0,15,0,6,0,0,2,9,5,0,0,0,0,14,0,2,0,0,0,0,14,0,9,0,21,0,0,0,9,0,0,0,0,0,0,0,0,0,0,0,0,0,0,0,0],"split_type":[0,0,0,0,0,0,0,0,0,0,0,0,0,0,0,0,0,0,0,0,0,0,0,0,0,0,0,0,0,0,0,0,0,0,0,0,0,0,0,0,0,0,0,0,0,0,0,0,0,0,0,0,0,0,0,0,0,0,0,0,0,0,0,0,0,0,0,0,0,0,0,0,0,0,0,0,0,0,0,0,0,0,0,0,0,0,0,0,0,0,0,0,0,0,0,0,0,0,0,0,0,0,0,0,0,0,0,0,0,0,0,0,0,0,0,0,0,0,0,0,0,0,0,0,0,0,0,0,0,0,0,0,0,0,0,0,0,0,0],"sum_hessian":[8.546158E2,3.473368E2,5.07279E2,9.808138E1,2.4925543E2,9.90228E1,4.082562E2,1.6478317E1,8.160306E1,2.2036253E2,2.8892899E1,2.8697424E1,7.032537E1,1.9084465E2,2.1741154E2,1.311051E1,3.3678076E0,5.9973693E0,7.560569E1,1.3724118E2,8.3121346E1,2.446078E1,4.4321194E0,3.5914738E1,3.441063E1,1.1533818E0,1.8969127E2,3.720564E1,1.802059E2,1.4866952E1,6.073874E1,1.19047646E2,1.8193544E1,5.867662E1,2.4444723E1,1.7663269E0,2.2694452E1,1.3569774E1,2.2344965E1,3.2864997E0,3.1124132E1,1.1718466E0,1.8851941E2,2.2838549E1,1.436709E1,4.4340942E1,1.3586496E2,7.0112853E0,7.8556666E0,5.7851887E1,2.8868554E0,2.941538E0,1.5252006E1,5.093332E1,7.743301E0,1.46983595E1,9.746364E0,5.956737E0,1.6737715E1,3.8431191E0,1.8501844E1,2.9492647E1,1.6314842E0,1.0845287E1,1.7767413E2,1.1730654E1,2.6364374E0,3.0500624E1,1.384032E1,4.774277E0,1.3109068E2,1.8412201E0,6.0144467E0,1.1014218E0,5.675046E1,4.4755062E1,6.178256E0,1.9541036E0,5.789197E0,1.8924973E0,1.2805862E1,2.513727E0,7.2326365E0,4.594458E0,1.362279E0,1.5873146E1,2.6286986E0,2.5374653E1,4.1179953E0,3.0979736E0,7.7473135E0,1.2949141E1,1.6472499E2,1.6163304E0,1.0114323E1,2.5798306E1,4.702317E0,4.1117153E0,9.728604E0,2.285798E0,1.2880489E2,3.3593462E0,5.3391117E1,3.3595803E0,2.818676E0,1.008728E1,2.7185824E0,4.1097336E0,1.1763413E1,2.2445543E1,2.929109E0,1.8670542E0,2.2509408E0,1.666888E0,1.1282252E1,3.198184E0,1.6152681E2,4.1294975E0,2.1668808E1,2.4966116E0,1.6151038E0,1.4671634E0,1.2733772E2,1.2019371E0,2.1574092E0,4.404793E1,9.343184E0,1.6389142E0,2.4708192E0,1.9807775E1,2.637768E0,7.7842946E0,3.4979575E0,9.453059E1,6.6996216E1,1.6682756E1,4.9860525E0,1.4506199E1,1.1283153E2],"tree_param":{"num_deleted":"0","num_feature":"22","num_nodes":"139","size_leaf_vector":"1"}},{"base_weights":[7.5673446E-2,-5.9646094E-1,4.2679846E-1,-1.2619963E0,-3.9798942E-1,-1.0983478E0,5.031553E-1,-1.3593587E-1,-6.4942575E-1,-5.325092E-1,5.2015436E-1,1.1329949E-1,-1.380506E-1,-2.687005E-1,6.1695266E-1,1.0216018E-1,-1.2259688E-1,-1.0946486E0,-3.44862E-1,-1.2938416E-1,1.0133773E0,-6.744889E-1,5.009707E-1,3.7852812E-1,9.0129876E-1,9.216624E-2,-1.2292283E0,-1.0510079E0,-1.4290182E-1,1.2140886E0,-9.880746E-2,5.9100384E-1,-1.2560633E0,7.8611714E-1,-1.1782771E-1,-7.279311E-1,5.0279504E-1,-1.21932104E-1,9.331294E-1,2.5603846E-1,-1.3809551E-1,5.4365724E-2,-1.2099061E0,1.3296676E-2,-1.3613905E-1,3.9771113E-1,1.3790381E-1,-1.0778864E-1,1.1482773E0,-1.4715238E-1,3.28983E-1,-1.04500785E-1,9.938108E-1,7.683637E-1,-1.217847E0,-9.111174E-2,6.802144E-1,9.510383E-1,-9.154946E-2,-9.024199E-2,1.0723567E-1,-7.496208E-3,-1.4008628E-1,-2.7484566E-1,1.116566E0,-8.686387E-2,1.1640852E-1,5.3009886E-2,1.3335894E-1,1.0015905E-1,-8.072072E-2,1.2468191E0,1.286522E-2,1.0788628E-1,3.6090297E-1,6.243227E-2,-1.5838613E-1,-8.672196E-1,5.743283E-1,1.0365831E0,4.012738E-1,3.7834525E-1,1.0160623E0,-9.497549E-2,9.155657E-2,3.6423558E-1,-7.423499E-1,1.3819939E0,4.134072E-1,4.3573324E-2,1.3792448E-1,9.450813E-2,-1.0309725E-1,1.04766846E-1,-9.144417E-2,-1.1155437E0,1.0385489E-1,8.105166E-1,-1.3108468E-1,1.1140507E0,2.050034E-1,-1.5447758E-1,5.7586205E-1,1.140803E0,-4.7159785E-1,4.6685877E-1,1.0733844E0,-1.15510695E-1,5.796213E-2,-9.938685E-2,8.674001E-2,7.185233E-2,1.5337764E-1,-1.0362221E-1,1.1332023E-1,3.9630312E-2,-1.4342712E-1,-1.0469686E-1,1.0485722E-1,6.0763013E-2,1.1651268E-1,-1.2947956E-1,9.93282E-2,-3.6833465E-2,7.0313E-2,4.7997806E-2,1.3353932E-1,-1.4033118E-1,4.9588513E-2,8.7142706E-2,-1.3325396E-1,9.176945E-2,1.2200272E-1],"categories":[],"categories_nodes":[],"categories_segments":[],"categories_sizes":[],"default_left":[0,0,0,0,0,0,0,0,0,0,0,0,0,0,0,0,0,0,0,0,0,0,0,0,0,0,0,0,0,0,0,0,0,0,0,0,0,0,0,0,0,0,0,0,0,0,0,0,0,0,0,0,0,0,0,0,0,0,0,0,0,0,0,0,0,0,0,0,0,0,0,0,0,0,0,0,0,0,0,0,0,0,0,0,0,0,0,0,0,0,0,0,0,0,0,0,0,0,0,0,0,0,0,0,0,0,0,0,0,0,0,0,0,0,0,0,0,0,0,0,0,0,0,0,0,0,0,0,0,0,0,0,0],"id":7,"left_children":[1,3,5,7,9,11,13,-1,15,17,19,-1,-1,21,23,-1,-1,25,27,-1,29,31,33,35,37,-1,39,41,43,45,-1,47,49,51,-1,53,55,-1,57,59,-1,-1,61,63,-1,65,-1,-1,67,-1,69,-1,71,73,75,77,79,81,-1,-1,-1,83,-1,85,87,-1,-1,-1,-1,-1,-1,89,91,-1,93,-1,-1,95,97,99,101,103,105,-1,-1,107,109,111,113,-1,-1,-1,-1,-1,-1,115,-1,117,-1,119,121,-1,123,125,127,129,131,-1,-1,-1,-1,-1,-1,-1,-1,-1,-1,-1,-1,-1,-1,-1,-1,-1,-1,-1,-1,-1,-1,-1,-1,-1,-1],"loss_changes":[1.987005E2,3.7665527E1,6.494171E1,3.0484543E0,2.7947624E1,1.8358997E1,4.6475266E1,0E0,1.1806282E1,2.0287064E1,2.737899E1,0E0,0E0,2.1713486E1,3.0830444E1,0E0,0E0,1.4312092E1,2.1004288E1,0E0,1.06270485E1,3.403791E1,1.251428E1,3.498957E1,1.5243851E1,0E0,1.0710381E1,8.977009E0,2.2191607E1,2.384159E0,0E0,1.5117853E1,1.1178799E1,9.134466E0,0E0,1.987384E1,2.3979008E1,0E0,7.7056885E0,5.793706E0,0E0,0E0,6.916046E0,3.344954E1,0E0,5.927581E0,0E0,0E0,6.3022995E-1,0E0,4.2968764E0,0E0,4.856262E0,4.944029E-1,1.4372194E1,2.7917368E1,1.6968971E1,7.2481384E0,0E0,0E0,0E0,5.339839E0,0E0,2.5208399E1,3.4950333E0,0E0,0E0,0E0,0E0,0E0,0E0,1.0741482E0,5.874456E0,0E0,4.920163E0,0E0,0E0,1.2945393E1,1.4057394E1,4.6775894E0,3.477466E1,1.5113865E1,5.274811E0,0E0,0E0,1.2428726E1,2.051265E1,4.4777107E-1,8.892917E0,0E0,0E0,0E0,0E0,0E0,0E0,1.1418697E1,0E0,1.28394985E1,0E0,1.0881729E0,1.04076605E1,0E0,1.1344389E1,9.212408E-1,1.0920975E1,1.5072435E1,2.6557312E0,0E0,0E0,0E0,0E0,0E0,0E0,0E0,0E0,0E0,0E0,0E0,0E0,0E0,0E0,0E0,0E0,0E0,0E0,0E0,0E0,0E0,0E0,0E0,0E0,0E0,0E0],"parents":[2147483647,0,0,1,1,2,2,3,3,4,4,5,5,6,6,8,8,9,9,10,10,13,13,14,14,17,17,18,18,20,20,21,21,22,22,23,23,24,24,26,26,27,27,28,28,29,29,31,31,32,32,33,33,35,35,36,36,38,38,39,39,42,42,43,43,45,45,48,48,50,50,52,52,53,53,54,54,55,55,56,56,57,57,61,61,63,63,64,64,71,71,72,72,74,74,77,77,78,78,79,79,80,80,81,81,82,82,85,85,86,86,87,87,88,88,95,95,97,97,99,99,100,100,102,102,103,103,104,104,105,105,106,106],"right_children":[2,4,6,8,10,12,14,-1,16,18,20,-1,-1,22,24,-1,-1,26,28,-1,30,32,34,36,38,-1,40,42,44,46,-1,48,50,52,-1,54,56,-1,58,60,-1,-1,62,64,-1,66,-1,-1,68,-1,70,-1,72,74,76,78,80,82,-1,-1,-1,84,-1,86,88,-1,-1,-1,-1,-1,-1,90,92,-1,94,-1,-1,96,98,100,102,104,106,-1,-1,108,110,112,114,-1,-1,-1,-1,-1,-1,116,-1,118,-1,120,122,-1,124,126,128,130,132,-1,-1,-1,-1,-1,-1,-1,-1,-1,-1,-1,-1,-1,-1,-1,-1,-1,-1,-1,-1,-1,-1,-1,-1,-1,-1],"split_conditions":[1.18E1,4.11E-1,1.2E1,3.190625E1,3.8E1,2.332258E1,4.88E-1,-1.3593587E-1,3.203125E1,9E0,5.62E-1,1.1329949E-1,-1.380506E-1,1.6806452E1,3.5E1,1.0216018E-1,-1.2259688E-1,4.12E-1,2E1,-1.2938416E-1,5.3807104E-1,2.4343675E-1,8.33E-1,6.1764705E-1,1.7737003E-1,9.216624E-2,2.631579E-1,9.033334E0,6.8E1,9.314285E0,-9.880746E-2,3.75E0,5.3333336E-1,3.3718246E-1,-1.1782771E-1,2.9411766E-1,4.47E-1,-1.21932104E-1,6.420664E-1,6.8E1,-1.3809551E-1,5.4365724E-2,4.89E-1,6.5E1,-1.3613905E-1,9.4E1,1.3790381E-1,-1.0778864E-1,3.5E1,-1.4715238E-1,5.442623E-1,-1.04500785E-1,9.1E1,2.4702703E1,2.7E1,1.5529411E1,3.2E1,2.7948717E1,-9.154946E-2,-9.024199E-2,1.0723567E-1,3.4E1,-1.4008628E-1,2.5647058E1,5.22E-1,-8.686387E-2,1.1640852E-1,5.3009886E-2,1.3335894E-1,1.0015905E-1,-8.072072E-2,7.71E-1,3.8E-1,1.0788628E-1,5.44E-1,6.243227E-2,-1.5838613E-1,5.9574467E-1,4.39E-1,3.4E1,2.9E1,3.6E1,1.9E1,-9.497549E-2,9.155657E-2,3.9E1,8.87E-1,4.7E1,9.1E1,4.3573324E-2,1.3792448E-1,9.450813E-2,-1.0309725E-1,1.04766846E-1,-9.144417E-2,1.9E1,1.0385489E-1,3.75E0,-1.3108468E-1,3.375E0,8.2E1,-1.5447758E-1,6.67E-1,7.633588E-3,8.8E1,8.49E-1,3.7E1,-1.15510695E-1,5.796213E-2,-9.938685E-2,8.674001E-2,7.185233E-2,1.5337764E-1,-1.0362221E-1,1.1332023E-1,3.9630312E-2,-1.4342712E-1,-1.0469686E-1,1.0485722E-1,6.0763013E-2,1.1651268E-1,-1.2947956E-1,9.93282E-2,-3.6833465E-2,7.0313E-2,4.7997806E-2,1.3353932E-1,-1.4033118E-1,4.9588513E-2,8.7142706E-2,-1.3325396E-1,9.176945E-2,1.2200272E-1],"split_indices":[14,6,2,19,0,19,11,0,19,14,11,0,0,14,0,0,0,6,4,0,20,21,9,18,21,0,18,14,5,14,0,16,20,21,0,18,6,0,20,2,0,0,11,5,0,2,0,0,0,0,20,0,5,19,5,14,2,19,0,0,0,0,0,19,11,0,0,0,0,0,0,9,6,0,9,0,0,21,6,0,0,0,2,0,0,5,9,4,2,0,0,0,0,0,0,4,0,16,0,16,5,0,9,20,2,9,0,0,0,0,0,0,0,0,0,0,0,0,0,0,0,0,0,0,0,0,0,0,0,0,0,0,0],"split_type":[0,0,0,0,0,0,0,0,0,0,0,0,0,0,0,0,0,0,0,0,0,0,0,0,0,0,0,0,0,0,0,0,0,0,0,0,0,0,0,0,0,0,0,0,0,0,0,0,0,0,0,0,0,0,0,0,0,0,0,0,0,0,0,0,0,0,0,0,0,0,0,0,0,0,0,0,0,0,0,0,0,0,0,0,0,0,0,0,0,0,0,0,0,0,0,0,0,0,0,0,0,0,0,0,0,0,0,0,0,0,0,0,0,0,0,0,0,0,0,0,0,0,0,0,0,0,0,0,0,0,0,0,0],"sum_hessian":[8.398612E2,2.879533E2,5.519079E2,6.4915E1,2.230383E2,2.5675848E1,5.26232E2,5.496045E1,9.954555E0,1.949026E2,2.8135704E1,2.5437887E0,2.313206E1,6.74405E1,4.5879153E2,2.355508E0,7.599046E0,4.75681E1,1.473345E2,5.66767E0,2.2468033E1,4.4239883E1,2.3200619E1,2.5081453E2,2.07977E2,2.6103659E0,4.4957733E1,3.1831808E1,1.1550269E2,2.0777775E1,1.6902586E0,1.3924431E1,3.0315453E1,2.0287537E1,2.9130821E0,2.483435E1,2.2598016E2,2.5238855E0,2.0545311E2,4.103246E0,4.085449E1,2.6650069E0,2.9166801E1,1.0325543E2,1.2247263E1,4.065867E0,1.6711908E1,3.2518287E0,1.0672602E1,2.675076E1,3.564695E0,1.6559974E0,1.8631538E1,5.985415E0,1.8848936E1,5.209154E1,1.7388863E2,2.0396272E2,1.490389E0,1.6525683E0,2.4506779E0,4.139649E0,2.5027153E1,8.2468025E1,2.0787407E1,1.482597E0,2.5832698E0,3.3518424E0,7.32076E0,2.3135653E0,1.2511296E0,1.4595887E1,4.0356517E0,2.4617248E0,3.5236905E0,3.0073E0,1.5841637E1,2.390626E1,2.8185282E1,7.515545E1,9.873318E1,2.1492035E1,1.8247069E2,2.0342128E0,2.1054358E0,3.4933968E1,4.7534058E1,1.4390051E1,6.3973556E0,2.6507664E0,1.1945121E1,2.1817837E0,1.853868E0,2.4063869E0,1.1173035E0,2.1517189E1,2.3890693E0,2.555378E1,2.6315033E0,6.844009E1,6.7153664E0,7.482402E0,9.125078E1,1.1148684E1,1.034335E1,1.8109362E1,1.6436133E2,3.7957287E0,3.1138237E1,4.144154E1,6.09252E0,3.7466424E0,1.0643409E1,1.9767262E0,4.4206295E0,3.7040524E0,1.7813137E1,2.516919E0,2.303686E1,7.4518065E0,6.0988277E1,2.0921767E0,4.6231894E0,1.0613727E1,8.0637054E1,3.3246937E0,7.82399E0,5.0395966E0,5.303754E0,1.5206186E1,2.9031758E0,8.3241875E1,8.111945E1],"tree_param":{"num_deleted":"0","num_feature":"22","num_nodes":"133","size_leaf_vector":"1"}},{"base_weights":[1.1226093E-1,-4.6272716E-1,4.755343E-1,3.4653035E-1,-8.1319827E-1,-7.429732E-1,5.83861E-1,-1.0249636E0,7.2236794E-1,-1.0414262E0,7.6437193E-1,-1.3166143E-1,-9.129175E-2,1.1926261E0,4.008133E-1,8.801589E-2,-1.3293408E-1,-1.2789334E-1,8.70618E-1,1.00585036E-1,-1.1177973E0,-1.1399392E-1,1.0490597E0,-1.2108984E-1,5.5740786E-1,-9.929839E-2,1.2301358E0,-1.340859E-1,4.734538E-1,9.778368E-2,-1.24706104E-1,9.4006866E-1,-1.0349884E-1,-1.1231744E-1,6.558367E-1,-1.300519E0,-7.850375E-1,1.2301824E0,-9.609849E-2,1.0898852E0,-1.0671079E-1,3.5768813E-1,1.2572726E0,7.745637E-3,6.567724E-1,-9.855843E-2,1.0056074E0,-9.094731E-2,1.0163711E0,-1.348217E-1,-7.7146E-2,1.0874316E0,-1.1451464E0,3.381425E-1,1.3487326E0,1.2438419E-1,5.0684452E-2,1.0508938E-1,-9.034892E-2,1.27064E-1,5.4789897E-2,-7.5600797E-1,3.4076408E-1,3.6156252E-1,9.1334254E-1,1.0679306E0,-9.999665E-2,1.18773334E-1,4.7479805E-2,9.0717494E-2,-9.609416E-2,3.5455212E-2,1.2767082E-1,-1.3807519E-1,-5.941932E-1,-7.248103E-2,9.181761E-2,1.4093019E-1,6.1560936E-2,4.5019203E-1,-1.1494006E0,-1.425256E-1,5.786884E-1,4.631053E-1,-1.4090662E-1,-7.472963E-2,9.325997E-1,1.2408864E0,7.075167E-1,8.7064385E-1,-1.4167918E-1,-1.0837475E-1,1.2349608E-1,1.0886176E-1,-1.472721E-1,3.6181543E-2,8.506763E-1,-1.20212294E-1,5.361032E-1,-3.5773509E-3,9.6160394E-1,4.4281323E-2,1.2930487E-1,1.03796504E-1,-1.19341925E-1,1.2710756E-1,-7.739356E-2,6.446821E-2,-1.4405861E-1,9.552952E-2,-2.1119598E-2,2.5886847E-2,1.0277616E-1,9.860964E-2,-1.2343762E-1,4.9534645E-2,1.0271969E-1],"categories":[],"categories_nodes":[],"categories_segments":[],"categories_sizes":[],"default_left":[0,0,0,0,0,0,0,0,0,0,0,0,0,0,0,0,0,0,0,0,0,0,0,0,0,0,0,0,0,0,0,0,0,0,0,0,0,0,0,0,0,0,0,0,0,0,0,0,0,0,0,0,0,0,0,0,0,0,0,0,0,0,0,0,0,0,0,0,0,0,0,0,0,0,0,0,0,0,0,0,0,0,0,0,0,0,0,0,0,0,0,0,0,0,0,0,0,0,0,0,0,0,0,0,0,0,0,0,0,0,0,0,0,0,0,0,0],"id":8,"left_children":[1,3,5,7,9,11,13,15,17,19,21,-1,23,25,27,-1,-1,29,31,33,35,-1,37,-1,39,-1,41,-1,43,-1,-1,45,-1,-1,47,49,51,53,-1,55,-1,57,59,61,63,-1,65,-1,67,-1,69,71,73,75,77,-1,-1,-1,-1,-1,-1,79,81,83,85,87,-1,-1,-1,-1,-1,-1,-1,-1,89,-1,-1,-1,-1,91,93,-1,95,97,-1,-1,99,101,103,105,-1,-1,-1,-1,-1,107,109,-1,111,113,115,-1,-1,-1,-1,-1,-1,-1,-1,-1,-1,-1,-1,-1,-1,-1,-1],"loss_changes":[1.7175212E2,9.060374E1,6.692695E1,5.070899E1,8.091321E1,1.5419039E1,5.1135574E1,1.3500769E1,9.776398E0,1.7103928E1,1.6755177E1,0E0,1.5588971E1,9.958252E0,4.5878265E1,0E0,0E0,1.6386206E1,9.630943E0,9.657834E0,1.0087051E1,0E0,1.0461578E1,0E0,1.3001894E1,0E0,2.0413666E0,0E0,2.9365929E1,0E0,0E0,9.02317E0,0E0,0E0,6.377519E0,6.6887817E0,4.6612225E1,2.0629349E0,0E0,3.3922005E-1,0E0,4.9462337E0,2.677002E-1,2.5230206E1,1.8366524E1,0E0,8.822933E0,0E0,2.0876694E-1,0E0,5.594688E0,1.1238785E0,6.567642E0,3.2111528E0,5.1208496E-2,0E0,0E0,0E0,0E0,0E0,0E0,1.4811066E1,2.9842922E1,2.1587112E1,4.8993683E0,2.9031448E0,0E0,0E0,0E0,0E0,0E0,0E0,0E0,0E0,2.389175E1,0E0,0E0,0E0,0E0,1.1121294E1,1.8243156E1,0E0,9.054659E0,1.4122019E1,0E0,0E0,3.5428467E0,1.0784988E0,1.5055608E1,5.844808E0,0E0,0E0,0E0,0E0,0E0,2.0344E1,4.752884E0,0E0,1.4306126E1,7.202156E0,3.358017E0,0E0,0E0,0E0,0E0,0E0,0E0,0E0,0E0,0E0,0E0,0E0,0E0,0E0,0E0,0E0,0E0],"parents":[2147483647,0,0,1,1,2,2,3,3,4,4,5,5,6,6,7,7,8,8,9,9,10,10,12,12,13,13,14,14,17,17,18,18,19,19,20,20,22,22,24,24,26,26,28,28,31,31,34,34,35,35,36,36,37,37,39,39,41,41,42,42,43,43,44,44,46,46,48,48,50,50,51,51,52,52,53,53,54,54,61,61,62,62,63,63,64,64,65,65,74,74,79,79,80,80,82,82,83,83,86,86,87,87,88,88,89,89,95,95,96,96,98,98,99,99,100,100],"right_children":[2,4,6,8,10,12,14,16,18,20,22,-1,24,26,28,-1,-1,30,32,34,36,-1,38,-1,40,-1,42,-1,44,-1,-1,46,-1,-1,48,50,52,54,-1,56,-1,58,60,62,64,-1,66,-1,68,-1,70,72,74,76,78,-1,-1,-1,-1,-1,-1,80,82,84,86,88,-1,-1,-1,-1,-1,-1,-1,-1,90,-1,-1,-1,-1,92,94,-1,96,98,-1,-1,100,102,104,106,-1,-1,-1,-1,-1,108,110,-1,112,114,116,-1,-1,-1,-1,-1,-1,-1,-1,-1,-1,-1,-1,-1,-1,-1,-1],"split_conditions":[3.08E2,1E0,4.03E-1,4.38E-1,1.875E0,3.5E1,1E0,1.94E2,2.777778E-1,2.3E1,7.4285716E-1,-1.3166143E-1,3.5555556E0,5.5555556E-2,1.3E1,8.801589E-2,-1.3293408E-1,5.7142857E-2,6.08E-1,3.6599424E-1,5.3333336E-1,-1.1399392E-1,5.1123595E-1,-1.2108984E-1,3E0,-9.929839E-2,4.51E-1,-1.340859E-1,5.57E-1,9.778368E-2,-1.24706104E-1,5.17E-1,-1.0349884E-1,-1.1231744E-1,2.02E2,9.2E1,2.1E1,3.3E1,-9.609849E-2,2.8E-1,-1.0671079E-1,4.93E-1,5.2884614E-1,3.4E1,3.97E2,-9.855843E-2,5.4755044E-1,-9.094731E-2,2E0,-1.348217E-1,9.3E1,2.8908554E-1,2.8E2,6.06E-1,6.62E-1,1.2438419E-1,5.0684452E-2,1.0508938E-1,-9.034892E-2,1.27064E-1,5.4789897E-2,2.5490198E-1,1.4871795E0,5.614035E-1,2.8181818E0,6E1,-9.999665E-2,1.18773334E-1,4.7479805E-2,9.0717494E-2,-9.609416E-2,3.5455212E-2,1.2767082E-1,-1.3807519E-1,2.82E2,-7.248103E-2,9.181761E-2,1.4093019E-1,6.1560936E-2,4.3E2,4.04E-1,-1.425256E-1,4.4444445E-1,1.25E-1,-1.4090662E-1,-7.472963E-2,2.1383648E-1,1.826923E-1,3.3707865E-2,5.02E-1,-1.4167918E-1,-1.0837475E-1,1.2349608E-1,1.0886176E-1,-1.472721E-1,3.3791208E-1,4.57E2,-1.20212294E-1,2.764706E0,1.137931E0,1.625E0,4.4281323E-2,1.2930487E-1,1.03796504E-1,-1.19341925E-1,1.2710756E-1,-7.739356E-2,6.446821E-2,-1.4405861E-1,9.552952E-2,-2.1119598E-2,2.5886847E-2,1.0277616E-1,9.860964E-2,-1.2343762E-1,4.9534645E-2,1.0271969E-1],"split_indices":[1,13,6,6,17,0,13,1,17,0,15,0,16,17,2,0,0,17,6,21,17,0,21,0,13,0,7,0,10,0,0,10,0,0,1,2,2,0,0,17,0,10,21,2,1,0,20,0,13,0,2,21,1,6,10,0,0,0,0,0,0,20,15,20,16,2,0,0,0,0,0,0,0,0,1,0,0,0,0,1,7,0,17,17,0,0,21,20,20,6,0,0,0,0,0,21,1,0,15,15,15,0,0,0,0,0,0,0,0,0,0,0,0,0,0,0,0],"split_type":[0,0,0,0,0,0,0,0,0,0,0,0,0,0,0,0,0,0,0,0,0,0,0,0,0,0,0,0,0,0,0,0,0,0,0,0,0,0,0,0,0,0,0,0,0,0,0,0,0,0,0,0,0,0,0,0,0,0,0,0,0,0,0,0,0,0,0,0,0,0,0,0,0,0,0,0,0,0,0,0,0,0,0,0,0,0,0,0,0,0,0,0,0,0,0,0,0,0,0,0,0,0,0,0,0,0,0,0,0,0,0,0,0,0,0,0,0],"sum_hessian":[8.202075E2,3.1745956E2,5.0274792E2,9.593999E1,2.2151959E2,4.0567516E1,4.6218042E2,2.0264458E1,7.567553E1,1.9381949E2,2.770011E1,2.1032965E1,1.953455E1,1.05569725E2,3.566107E2,2.5310054E0,1.7733454E1,1.1256014E1,6.441951E1,1.2129194E1,1.8169029E2,3.2118025E0,2.4488306E1,6.84828E0,1.2686271E1,1.3514389E0,1.04218285E2,1.3578778E1,3.4303192E2,5.7255206E0,5.5304933E0,6.264314E1,1.7763737E0,3.4664385E0,8.662755E0,1.1540949E2,6.62808E1,2.2820005E1,1.6683013E0,9.802384E0,2.8838856E0,3.5716197E0,1.0064667E2,9.718427E1,2.4584764E2,1.5997964E0,6.1043343E1,1.3367035E0,7.3260517E0,1.1098043E2,4.4290566E0,1.0365138E1,5.591566E1,3.1288722E0,1.9691133E1,6.858083E0,2.944302E0,2.4123876E0,1.159232E0,9.8008575E1,2.6380904E0,2.9122887E1,6.8061386E1,1.1543604E2,1.3041159E2,5.9657017E1,1.3863242E0,4.658813E0,2.6672387E0,2.0828474E0,2.3462095E0,2.717228E0,7.6479106E0,3.811173E1,1.7803934E1,1.016487E0,2.1123853E0,1.7336498E1,2.3546352E0,7.1267705E0,2.1996117E1,7.488294E0,6.0573097E1,1.0987343E2,5.5626173E0,1.0615648E0,1.2935002E2,3.8661263E1,2.0995756E1,6.381576E0,1.1422358E1,2.2831197E0,4.843651E0,2.4778044E0,1.951831E1,2.0605808E1,3.996729E1,3.9646163E0,1.0590881E2,3.9133852E0,1.2543664E2,2.9540515E0,3.570721E1,1.8273212E1,2.7225444E0,5.3146467E0,1.0669291E0,1.4991872E1,5.613935E0,3.6474117E1,3.4931707E0,6.869808E1,3.7210728E1,2.2793763E0,1.6340089E0,1.6524738E1,1.089119E2],"tree_param":{"num_deleted":"0","num_feature":"22","num_nodes":"117","size_leaf_vector":"1"}},{"base_weights":[1.4774686E-1,-3.8168094E-1,4.6836996E-1,4.6458557E-1,-7.752572E-1,-8.683608E-1,5.829018E-1,-1.2857358E-1,7.842384E-1,-9.9337906E-1,1.3001606E-2,-1.0073539E0,9.8566584E-2,9.503023E-1,2.8697404E-1,8.8543546E-1,-1.1732215E-1,-2.3808676E-1,-1.2374991E0,-1.1678817E-1,2.1118006E-1,1.3003044E-1,-1.2914039E-1,1.1578659E0,6.955798E-1,-9.974693E-2,6.212874E-1,9.729017E-1,-2.2143292E-1,2.5483373E-1,-7.9233015E-1,-1.300277E-1,1.7613095E-1,4.0467304E-1,-1.1936273E-1,-1.0347786E-1,8.6360954E-2,3.2778744E-2,1.1789994E0,2.9315162E-1,1.2291256E0,-1.2688938E-1,7.0268795E-2,-2.3718946E-1,7.9609114E-1,1.0665735E0,1.684824E-1,1.0350609E-1,-1.17949046E-1,-3.4733272E-1,1.1478914E0,-1.2976693E-1,5.068726E-1,-9.613275E-2,1.207199E-1,1.0612109E0,1.1412954E-1,4.1052822E-2,1.1953167E-1,-1.5806955E-1,4.2114362E-1,3.5555955E-2,1.2860382E-1,-1.4263634E-1,1.865762E-1,-1.4992976E-1,6.023011E-1,-5.1933503E-1,8.5266554E-1,2.4069932E-1,1.1535524E0,-1.02112845E-1,8.1763947E-1,-1.1764067E-1,4.1983357E-1,5.360297E-2,1.343842E-1,-8.0907695E-2,1.0289147E-1,1.2253431E-1,4.6967387E-2,-6.8734413E-1,6.1702347E-1,-6.361694E-1,5.883008E-1,-4.513965E-2,6.8058985E-1,8.390976E-1,-9.480361E-2,-1.574154E-1,8.631196E-2,-9.330117E-2,8.882491E-1,-1.0856084E-1,1.0796759E-1,1.2199626E-1,6.4174145E-1,1.1821675E-1,2.3557657E-2,-9.022391E-2,9.26872E-2,-1.3016264E-1,8.8315055E-2,-1.5607454E-1,1.139578E-1,-1.2613231E-1,6.7776196E-2,-1.0719699E-1,6.837712E-1,-6.385945E-1,6.4612716E-1,8.445766E-1,-1.2280756E-1,4.98172E-2,1.0627095E0,6.648043E-1,1.1417618E0,1.05575465E-1,-9.39899E-2,1.1901299E-1,-1.1099503E-1,-6.6452944E-3,8.44095E-2,-1.6180784E-1,-2.3546068E-2,7.833651E-2,-1.1908429E-1,9.7526E-2,-1.2573189E-1,8.580803E-2,-1.093598E-1,1.23985566E-1,3.418554E-2,-1.4861986E-1,7.404678E-2,6.9096476E-2,1.1935773E-1],"categories":[],"categories_nodes":[],"categories_segments":[],"categories_sizes":[],"default_left":[0,0,0,0,0,0,0,0,0,0,0,0,0,0,0,0,0,0,0,0,0,0,0,0,0,0,0,0,0,0,0,0,0,0,0,0,0,0,0,0,0,0,0,0,0,0,0,0,0,0,0,0,0,0,0,0,0,0,0,0,0,0,0,0,0,0,0,0,0,0,0,0,0,0,0,0,0,0,0,0,0,0,0,0,0,0,0,0,0,0,0,0,0,0,0,0,0,0,0,0,0,0,0,0,0,0,0,0,0,0,0,0,0,0,0,0,0,0,0,0,0,0,0,0,0,0,0,0,0,0,0,0,0,0,0,0,0],"id":9,"left_children":[1,3,5,7,9,11,13,-1,15,17,19,21,-1,23,25,27,-1,29,31,-1,33,35,-1,37,39,41,43,45,47,49,51,-1,53,55,-1,-1,-1,-1,57,59,61,-1,63,65,67,69,71,-1,-1,73,75,-1,77,-1,-1,79,81,-1,-1,-1,83,-1,-1,-1,85,-1,87,89,91,93,95,-1,97,-1,99,-1,-1,-1,-1,-1,-1,101,103,105,107,109,111,113,-1,-1,-1,-1,115,-1,-1,-1,117,-1,-1,-1,-1,-1,-1,119,-1,-1,-1,-1,121,123,125,127,-1,129,131,133,135,-1,-1,-1,-1,-1,-1,-1,-1,-1,-1,-1,-1,-1,-1,-1,-1,-1,-1,-1,-1],"loss_changes":[1.359856E2,1.0105294E2,7.686215E1,5.505156E1,3.555629E1,1.12393265E1,4.9737854E1,0E0,1.734111E1,2.9562637E1,1.0963179E1,1.2277729E1,0E0,1.0021317E1,3.3185333E1,7.8464966E0,0E0,1.1346269E1,1.1068237E1,0E0,1.1371739E1,8.070323E0,0E0,1.5664978E0,1.9918839E1,2.3872768E1,2.0830307E1,5.3386765E0,9.150332E0,1.2416329E1,1.34241705E1,0E0,8.284256E0,6.7375436E0,0E0,0E0,0E0,0E0,8.657837E-1,1.389329E1,1.5460777E0,0E0,1.8614573E1,2.6374426E1,8.964584E0,4.420891E0,7.650816E0,0E0,0E0,9.471619E0,3.8653946E-1,0E0,5.067335E0,0E0,0E0,4.8373413E-1,1.092204E1,0E0,0E0,0E0,9.638069E0,0E0,0E0,0E0,1.13280945E1,0E0,6.3575525E0,9.150481E0,7.8288193E0,9.513218E0,1.2195282E0,0E0,1.0509057E0,0E0,6.2447395E0,0E0,0E0,0E0,0E0,0E0,0E0,1.1293552E1,6.856114E0,7.1270905E0,7.989375E0,2.8357407E1,1.0919525E1,2.3603697E0,0E0,0E0,0E0,0E0,5.388565E0,0E0,0E0,0E0,6.804594E0,0E0,0E0,0E0,0E0,0E0,0E0,1.1011772E1,0E0,0E0,0E0,0E0,5.336447E0,1.4290332E1,8.990896E0,9.375439E0,0E0,4.6978445E0,9.3048096E-1,1.0878317E1,3.3031464E-1,0E0,0E0,0E0,0E0,0E0,0E0,0E0,0E0,0E0,0E0,0E0,0E0,0E0,0E0,0E0,0E0,0E0,0E0,0E0,0E0],"parents":[2147483647,0,0,1,1,2,2,3,3,4,4,5,5,6,6,8,8,9,9,10,10,11,11,13,13,14,14,15,15,17,17,18,18,20,20,21,21,23,23,24,24,25,25,26,26,27,27,28,28,29,29,30,30,32,32,33,33,38,38,39,39,40,40,42,42,43,43,44,44,45,45,46,46,49,49,50,50,52,52,55,55,56,56,60,60,64,64,66,66,67,67,68,68,69,69,70,70,72,72,74,74,81,81,82,82,83,83,84,84,85,85,86,86,87,87,92,92,96,96,103,103,108,108,109,109,110,110,111,111,113,113,114,114,115,115,116,116],"right_children":[2,4,6,8,10,12,14,-1,16,18,20,22,-1,24,26,28,-1,30,32,-1,34,36,-1,38,40,42,44,46,48,50,52,-1,54,56,-1,-1,-1,-1,58,60,62,-1,64,66,68,70,72,-1,-1,74,76,-1,78,-1,-1,80,82,-1,-1,-1,84,-1,-1,-1,86,-1,88,90,92,94,96,-1,98,-1,100,-1,-1,-1,-1,-1,-1,102,104,106,108,110,112,114,-1,-1,-1,-1,116,-1,-1,-1,118,-1,-1,-1,-1,-1,-1,120,-1,-1,-1,-1,122,124,126,128,-1,130,132,134,136,-1,-1,-1,-1,-1,-1,-1,-1,-1,-1,-1,-1,-1,-1,-1,-1,-1,-1,-1,-1],"split_conditions":[3.08E2,1E0,4.06E-1,5.29E-1,1.51E2,7.03E2,2E0,-1.2857358E-1,3.9E1,2.8E1,1.9E1,1E0,9.8566584E-2,1E0,3.99E2,2.844E1,-1.1732215E-1,2.24E2,8.93E-1,-1.1678817E-1,2.89E2,1.08E2,-1.2914039E-1,4.13E-1,8.16129E0,4.34E-1,5.52E-1,4.9210528E-1,3.85E-1,2.18E2,3.351613E1,-1.300277E-1,1.24E2,3.2E1,-1.1936273E-1,-1.0347786E-1,8.6360954E-2,3.2778744E-2,7E1,1.9642857E-1,2.7948717E1,-1.2688938E-1,1.060606E0,5E1,6.95E-1,6.05E-1,7.62E-1,1.0350609E-1,-1.17949046E-1,2.9483871E1,3.5820895E-1,-1.2976693E-1,6.03E-1,-9.613275E-2,1.207199E-1,2.5E1,2.65E2,4.1052822E-2,1.1953167E-1,-1.5806955E-1,5.34E-1,3.5555955E-2,1.2860382E-1,-1.4263634E-1,4.9E1,-1.4992976E-1,3.4636364E1,4.3333335E0,8.9E1,2.6E1,6.7647057E0,-1.02112845E-1,7.66E-1,-1.1764067E-1,4.76E-1,5.360297E-2,1.343842E-1,-8.0907695E-2,1.0289147E-1,1.2253431E-1,4.6967387E-2,4.3E1,6.26E-1,7.1E1,3.19E2,6.8285713E0,3.6E1,3.6E1,-9.480361E-2,-1.574154E-1,8.631196E-2,-9.330117E-2,6.02E-1,-1.0856084E-1,1.0796759E-1,1.2199626E-1,3.3E1,1.1821675E-1,2.3557657E-2,-9.022391E-2,9.26872E-2,-1.3016264E-1,8.8315055E-2,4.85E-1,1.139578E-1,-1.2613231E-1,6.7776196E-2,-1.0719699E-1,1.8E0,3.3333334E-1,9.46875E0,3.33125E1,-1.2280756E-1,4.14E2,3.33125E1,1.9272727E-1,1.9E1,1.05575465E-1,-9.39899E-2,1.1901299E-1,-1.1099503E-1,-6.6452944E-3,8.44095E-2,-1.6180784E-1,-2.3546068E-2,7.833651E-2,-1.1908429E-1,9.7526E-2,-1.2573189E-1,8.580803E-2,-1.093598E-1,1.23985566E-1,3.418554E-2,-1.4861986E-1,7.404678E-2,6.9096476E-2,1.1935773E-1],"split_indices":[1,13,6,10,3,1,13,0,4,0,4,13,0,13,1,19,0,1,9,0,1,3,0,6,16,6,10,20,6,1,19,0,3,0,0,0,0,0,3,20,19,0,15,4,9,9,9,0,0,19,20,0,10,0,0,4,1,0,0,0,10,0,0,0,4,0,19,15,3,4,16,0,9,0,6,0,0,0,0,0,0,4,10,4,1,16,0,0,0,0,0,0,10,0,0,0,0,0,0,0,0,0,0,10,0,0,0,0,15,20,16,19,0,1,19,20,4,0,0,0,0,0,0,0,0,0,0,0,0,0,0,0,0,0,0,0,0],"split_type":[0,0,0,0,0,0,0,0,0,0,0,0,0,0,0,0,0,0,0,0,0,0,0,0,0,0,0,0,0,0,0,0,0,0,0,0,0,0,0,0,0,0,0,0,0,0,0,0,0,0,0,0,0,0,0,0,0,0,0,0,0,0,0,0,0,0,0,0,0,0,0,0,0,0,0,0,0,0,0,0,0,0,0,0,0,0,0,0,0,0,0,0,0,0,0,0,0,0,0,0,0,0,0,0,0,0,0,0,0,0,0,0,0,0,0,0,0,0,0,0,0,0,0,0,0,0,0,0,0,0,0,0,0,0,0,0,0],"sum_hessian":[7.990554E2,3.0131674E2,4.9773868E2,9.559286E1,2.0572389E2,3.876148E1,4.589772E2,1.4295077E1,8.1297775E1,1.609317E2,4.479219E1,3.6483074E1,2.278405E0,2.03775E2,2.5520221E2,7.7822174E1,3.4756017E0,3.9792244E1,1.2113946E2,5.7337127E0,3.905848E1,7.398889E0,2.9084185E1,1.1032761E2,9.344738E1,1.1865188E2,1.3655032E2,7.223509E1,5.5870843E0,2.1347181E1,1.844506E1,1.1606531E2,5.0741487E0,3.495574E1,4.1027384E0,2.7004333E0,4.698456E0,3.149068E0,1.07178535E2,5.415231E1,3.929507E1,1.4243086E1,1.0440879E2,2.3040325E1,1.1351E2,6.4409E1,7.8260946E0,2.3823087E0,3.2047758E0,1.3115084E1,8.232098E0,1.3280605E1,5.1644554E0,2.444763E0,2.6293857E0,9.909915E0,2.5045826E1,2.772356E0,1.0440618E2,2.7366626E0,5.1415646E1,2.8467631E0,3.6448307E1,6.716594E0,9.76922E1,8.889579E0,1.4150745E1,4.3432913E0,1.0916671E2,6.4960055E0,5.791299E1,2.5606241E0,5.265471E0,6.04684E0,7.0682435E0,2.9029822E0,5.329116E0,1.3106849E0,3.8537703E0,6.9187355E0,2.99118E0,9.514912E0,1.5530913E1,6.635919E0,4.4779728E1,6.711888E1,3.0573318E1,1.2673739E1,1.4770063E0,2.3849206E0,1.9583709E0,1.6401336E0,1.0752657E2,2.4030862E0,4.0929193E0,5.0036823E1,7.876168E0,2.603797E0,2.6616738E0,1.7432896E0,5.324954E0,6.9627185E0,2.5521934E0,6.5466847E0,8.984228E0,4.523654E0,2.1122649E0,1.8787718E0,4.2900955E1,3.615548E1,3.0963402E1,2.8667772E1,1.9055446E0,3.0678747E0,9.605865E0,5.9077938E1,4.844864E1,6.505714E0,1.3704541E0,2.612287E0,3.9343977E0,7.6568346E0,3.524412E1,9.66323E0,2.649225E1,2.9344654E1,1.6187491E0,2.7494347E1,1.1734259E0,1.9435527E0,1.1243219E0,7.132988E0,2.4728768E0,1.3740326E0,5.7703903E1,6.4725266E0,4.1976112E1],"tree_param":{"num_deleted":"0","num_feature":"22","num_nodes":"137","size_leaf_vector":"1"}},{"base_weights":[9.1787875E-2,-4.0400064E-1,4.2648986E-1,3.596804E-1,-7.737915E-1,1.0374906E0,2.4626705E-1,-3.3094496E-1,7.545032E-1,-9.947369E-1,1.500677E-1,5.623336E-1,1.1306291E0,-4.5814303E-1,4.382399E-1,-1.1989863E-1,1.8287028E-1,-9.990658E-2,8.4114367E-1,-1.6757305E-1,-1.0984341E0,-7.19662E-1,8.627265E-1,-1.23126924E-1,9.589055E-1,3.493168E-1,1.1838834E0,-1.1710807E0,2.3932625E-1,-2.2969343E-1,5.9357345E-1,4.3734214E-1,-1.13613784E-1,8.842915E-1,-7.835598E-2,-1.1426439E-1,5.868623E-1,-1.1377641E0,5.3753197E-2,-1.2244095E-1,3.6518008E-1,-8.422251E-2,1.0187398E0,1.2761325E0,-8.965518E-2,-1.0494063E-1,9.2629775E-2,4.3046385E-2,1.2016214E0,-1.292225E-1,2.7655933E-2,5.7567555E-1,-1.3186307E-1,-7.7894145E-1,5.3991634E-1,-1.3271974E-1,6.159781E-1,6.4480174E-1,-9.783023E-2,-8.63057E-2,9.648026E-1,1.1434993E0,-9.444111E-2,-1.2195803E0,-4.4453532E-1,-8.840596E-2,9.3936376E-2,2.589394E-1,1.1517285E0,5.26989E-2,1.3706669E-1,-9.713169E-2,8.1338845E-2,8.087244E-1,1.2401295E-1,-9.9854074E-2,7.90529E-1,1.058378E-1,-1.1701193E0,-4.8043633E-1,9.827339E-1,-1.08753E-1,6.4211774E-1,-9.31581E-2,8.676883E-1,-1.0255996E-1,9.316977E-2,4.3550068E-1,1.0142448E0,5.9331376E-2,1.324517E-1,-1.2791249E-1,-7.9733765E-1,1.1285528E-1,-8.101896E-1,-7.5674765E-2,9.2129E-2,1.4029631E-1,7.305904E-1,1.2526586E-2,1.0940093E-1,-7.3385365E-2,8.725121E-1,4.2934975E-1,-1.6582759E-1,1.03392474E-1,-1.4087576E-1,1.23932265E-1,4.673039E-1,2.4585482E-1,7.554897E-1,1.0786623E0,2.3189719E-1,1.0481552E-1,-9.216727E-2,8.306798E-1,1.1993902E-1,1.0174862E-1,-1.2123295E-1,-1.1959416E-1,9.20243E-2,1.1094807E-1,1.1059686E-1,1.0229781E0,4.509568E-2,-8.8088475E-2,9.552473E-2,-1.1184003E-1,1.0066996E-1,-6.740279E-1,7.870486E-1,9.160499E-1,3.780196E-1,1.19053625E-1,4.702556E-2,1.1615544E-1,-1.0008925E-1,1.0311188E-1,-1.15368746E-1,-9.331147E-2,8.85426E-2,5.2384336E-2,1.1573803E-1,9.956904E-2,-1.0045618E-1,-1.5261489E-1,-8.831765E-3,-2.4803292E-2,9.184931E-2,9.479382E-2,-9.996898E-2,-6.9845214E-2,8.9361496E-2],"categories":[],"categories_nodes":[],"categories_segments":[],"categories_sizes":[],"default_left":[0,0,0,0,0,0,0,0,0,0,0,0,0,0,0,0,0,0,0,0,0,0,0,0,0,0,0,0,0,0,0,0,0,0,0,0,0,0,0,0,0,0,0,0,0,0,0,0,0,0,0,0,0,0,0,0,0,0,0,0,0,0,0,0,0,0,0,0,0,0,0,0,0,0,0,0,0,0,0,0,0,0,0,0,0,0,0,0,0,0,0,0,0,0,0,0,0,0,0,0,0,0,0,0,0,0,0,0,0,0,0,0,0,0,0,0,0,0,0,0,0,0,0,0,0,0,0,0,0,0,0,0,0,0,0,0,0,0,0,0,0,0,0,0,0,0,0,0,0,0,0,0,0],"id":10,"left_children":[1,3,5,7,9,11,13,15,17,19,21,23,25,27,29,-1,31,-1,33,35,37,39,41,-1,43,45,47,49,51,53,55,57,-1,59,-1,-1,61,63,-1,-1,65,-1,67,69,71,-1,-1,-1,73,-1,-1,75,-1,77,79,-1,81,83,-1,85,87,89,-1,91,93,-1,-1,95,97,-1,-1,-1,-1,99,-1,-1,101,-1,103,105,107,-1,109,-1,111,-1,-1,113,115,-1,-1,-1,117,-1,119,-1,-1,-1,121,-1,-1,-1,123,125,-1,-1,-1,-1,127,129,131,133,135,-1,-1,137,-1,-1,-1,-1,-1,139,-1,141,143,-1,-1,-1,-1,145,147,149,151,-1,-1,-1,-1,-1,-1,-1,-1,-1,-1,-1,-1,-1,-1,-1,-1,-1,-1,-1,-1],"loss_changes":[1.2328344E2,8.486066E1,4.8568413E1,2.7079983E1,4.140515E1,3.819931E0,4.667895E1,1.6492523E1,1.0398365E1,1.3817505E1,2.533713E1,1.4332718E1,3.0479126E0,3.7125526E1,2.821233E1,0E0,8.481045E0,0E0,4.933506E0,1.4915631E1,9.93306E0,1.0579572E1,6.8088913E0,0E0,5.33823E0,6.401059E0,5.179825E-1,6.8132515E0,2.0821386E1,2.230777E1,1.0277611E1,6.6990747E0,0E0,4.7247314E0,0E0,0E0,1.0948679E1,7.4999084E0,0E0,0E0,5.5975885E0,0E0,1.8185749E0,1.361885E-1,4.4381423E0,0E0,0E0,0E0,1.3369751E-1,0E0,0E0,1.1674736E1,0E0,2.3248802E1,1.0482096E1,0E0,1.0404549E1,7.3519406E0,0E0,6.183542E0,9.957733E-1,1.04878426E-1,0E0,2.1543427E0,1.0429173E1,0E0,0E0,3.6643693E0,8.306675E-1,0E0,0E0,0E0,0E0,1.7309461E0,0E0,0E0,4.249136E0,0E0,2.079686E1,1.1826482E1,1.5075264E0,0E0,9.487083E0,0E0,2.007985E0,0E0,0E0,6.3250003E0,6.8546295E-1,0E0,0E0,0E0,1.4984622E1,0E0,1.0448402E1,0E0,0E0,0E0,1.8869452E0,0E0,0E0,0E0,3.422369E0,5.5334797E0,0E0,0E0,0E0,0E0,6.9841776E0,2.51134E1,9.77079E0,2.818594E-1,7.4296165E0,0E0,0E0,1.2366581E1,0E0,0E0,0E0,0E0,0E0,4.360591E0,0E0,9.720211E-1,6.321389E0,0E0,0E0,0E0,0E0,9.26283E0,4.5204277E0,8.059219E0,2.921801E1,0E0,0E0,0E0,0E0,0E0,0E0,0E0,0E0,0E0,0E0,0E0,0E0,0E0,0E0,0E0,0E0,0E0,0E0,0E0,0E0],"parents":[2147483647,0,0,1,1,2,2,3,3,4,4,5,5,6,6,7,7,8,8,9,9,10,10,11,11,12,12,13,13,14,14,16,16,18,18,19,19,20,20,21,21,22,22,24,24,25,25,26,26,27,27,28,28,29,29,30,30,31,31,33,33,36,36,37,37,40,40,42,42,43,43,44,44,48,48,51,51,53,53,54,54,56,56,57,57,59,59,60,60,61,61,63,63,64,64,67,67,68,68,73,73,76,76,78,78,79,79,80,80,82,82,84,84,87,87,88,88,92,92,94,94,98,98,102,102,103,103,108,108,109,109,110,110,111,111,112,112,115,115,121,121,123,123,124,124,129,129,130,130,131,131,132,132],"right_children":[2,4,6,8,10,12,14,16,18,20,22,24,26,28,30,-1,32,-1,34,36,38,40,42,-1,44,46,48,50,52,54,56,58,-1,60,-1,-1,62,64,-1,-1,66,-1,68,70,72,-1,-1,-1,74,-1,-1,76,-1,78,80,-1,82,84,-1,86,88,90,-1,92,94,-1,-1,96,98,-1,-1,-1,-1,100,-1,-1,102,-1,104,106,108,-1,110,-1,112,-1,-1,114,116,-1,-1,-1,118,-1,120,-1,-1,-1,122,-1,-1,-1,124,126,-1,-1,-1,-1,128,130,132,134,136,-1,-1,138,-1,-1,-1,-1,-1,140,-1,142,144,-1,-1,-1,-1,146,148,150,152,-1,-1,-1,-1,-1,-1,-1,-1,-1,-1,-1,-1,-1,-1,-1,-1,-1,-1,-1,-1],"split_conditions":[1.2454545E1,1E0,1E0,5.11E-1,1.0967742E0,2.1621622E-1,4.34E-1,3.4411764E0,1.9E2,2.8E1,2.65E2,3.6E2,4.13E-1,2.6923078E-1,1.4871795E0,-1.1989863E-1,1.1351352E1,-9.990658E-2,1.2E1,4.375E-1,2.28E2,8.424242E0,5.02E-1,-1.23126924E-1,1.5235294E1,3.4E1,4.48E-1,1.49E2,4.7E-1,1.86E2,5.75E-1,2.4848485E0,-1.13613784E-1,8.8529415E0,-7.835598E-2,-1.1426439E-1,1E0,4.259259E0,5.3753197E-2,-1.2244095E-1,1.137931E0,-8.422251E-2,6.29E-1,1.3971429E1,4.48E-1,-1.0494063E-1,9.2629775E-2,4.3046385E-2,9.189189E-1,-1.292225E-1,2.7655933E-2,9.4E1,-1.3186307E-1,1.7320262E-1,7.37E-1,-1.3271974E-1,1.7737003E-1,8.151515E0,-9.783023E-2,5.92E-1,6.16E-1,3.468208E-1,-9.444111E-2,4.8908296E-1,4.290323E0,-8.840596E-2,9.3936376E-2,1.79E2,2.82E2,5.26989E-2,1.3706669E-1,-9.713169E-2,8.1338845E-2,3.5E1,1.2401295E-1,-9.9854074E-2,3.77E-1,1.058378E-1,1.2653846E1,1.87E2,2.04E2,-1.08753E-1,5.09E-1,-9.31581E-2,1.4545455E0,-1.0255996E-1,9.316977E-2,3.1E1,1.1428572E0,5.9331376E-2,1.324517E-1,-1.2791249E-1,4.920635E-1,1.1285528E-1,8.73E-1,-7.5674765E-2,9.2129E-2,1.4029631E-1,8.484848E0,1.2526586E-2,1.0940093E-1,-7.3385365E-2,3.994638E-1,1.2142857E0,-1.6582759E-1,1.03392474E-1,-1.4087576E-1,1.23932265E-1,7.7E-1,1.5866667E1,3.699187E-1,5E0,2.8E1,1.0481552E-1,-9.216727E-2,3.9781022E-1,1.1993902E-1,1.0174862E-1,-1.2123295E-1,-1.1959416E-1,9.20243E-2,3.8E1,1.1059686E-1,3.4E1,3.17E2,-8.8088475E-2,9.552473E-2,-1.1184003E-1,1.0066996E-1,4.49E-1,2.749141E-1,5.47E-1,1.68E2,1.19053625E-1,4.702556E-2,1.1615544E-1,-1.0008925E-1,1.0311188E-1,-1.15368746E-1,-9.331147E-2,8.85426E-2,5.2384336E-2,1.1573803E-1,9.956904E-2,-1.0045618E-1,-1.5261489E-1,-8.831765E-3,